{"learner":{"attributes":{},"feature_names":["MSSubClass","LotFrontage","LotArea","OverallQual","OverallCond","YearBuilt","YearRemodAdd","MasVnrArea","BsmtFinSF1","BsmtFinSF2","BsmtUnfSF","TotalBsmtSF","1stFlrSF","2ndFlrSF","LowQualFinSF","GrLivArea","BsmtFullBath","BsmtHalfBath","FullBath","HalfBath","BedroomAbvGr","KitchenAbvGr","TotRmsAbvGrd","Fireplaces","GarageYrBlt","GarageCars","GarageArea","WoodDeckSF","OpenPorchSF","EnclosedPorch","3SsnPorch","ScreenPorch","PoolArea","MiscVal","MoSold","YrSold","MSZoning_C (all)","MSZoning_FV","MSZoning_RH","MSZoning_RL","MSZoning_RM","Street_Grvl","Street_Pave","Alley_Grvl","Alley_Pave","LotShape_IR1","LotShape_IR2","LotShape_IR3","LotShape_Reg","LandContour_Bnk","LandContour_HLS","LandContour_Low","LandContour_Lvl","Utilities_AllPub","Utilities_NoSeWa","LotConfig_Corner","LotConfig_CulDSac","LotConfig_FR2","LotConfig_FR3","LotConfig_Inside","LandSlope_Gtl","LandSlope_Mod","LandSlope_Sev","Neighborhood_Blmngtn","Neighborhood_Blueste","Neighborhood_BrDale","Neighborhood_BrkSide","Neighborhood_ClearCr","Neighborhood_CollgCr","Neighborhood_Crawfor","Neighborhood_Edwards","Neighborhood_Gilbert","Neighborhood_IDOTRR","Neighborhood_MeadowV","Neighborhood_Mitchel","Neighborhood_NAmes","Neighborhood_NPkVill","Neighborhood_NWAmes","Neighborhood_NoRidge","Neighborhood_NridgHt","Neighborhood_OldTown","Neighborhood_SWISU","Neighborhood_Sawyer","Neighborhood_SawyerW","Neighborhood_Somerst","Neighborhood_StoneBr","Neighborhood_Timber","Neighborhood_Veenker","Condition1_Artery","Condition1_Feedr","Condition1_Norm","Condition1_PosA","Condition1_PosN","Condition1_RRAe","Condition1_RRAn","Condition1_RRNe","Condition1_RRNn","Condition2_Artery","Condition2_Feedr","Condition2_Norm","Condition2_PosA","Condition2_PosN","Condition2_RRAe","Condition2_RRAn","Condition2_RRNn","BldgType_1Fam","BldgType_2fmCon","BldgType_Duplex","BldgType_Twnhs","BldgType_TwnhsE","HouseStyle_1.5Fin","HouseStyle_1.5Unf","HouseStyle_1Story","HouseStyle_2.5Fin","HouseStyle_2.5Unf","HouseStyle_2Story","HouseStyle_SFoyer","HouseStyle_SLvl","RoofStyle_Flat","RoofStyle_Gable","RoofStyle_Gambrel","RoofStyle_Hip","RoofStyle_Mansard","RoofStyle_Shed","RoofMatl_ClyTile","RoofMatl_CompShg","RoofMatl_Membran","RoofMatl_Metal","RoofMatl_Roll","RoofMatl_Tar&Grv","RoofMatl_WdShake","RoofMatl_WdShngl","Exterior1st_AsbShng","Exterior1st_AsphShn","Exterior1st_BrkComm","Exterior1st_BrkFace","Exterior1st_CBlock","Exterior1st_CemntBd","Exterior1st_HdBoard","Exterior1st_ImStucc","Exterior1st_MetalSd","Exterior1st_Plywood","Exterior1st_Stone","Exterior1st_Stucco","Exterior1st_VinylSd","Exterior1st_Wd Sdng","Exterior1st_WdShing","Exterior2nd_AsbShng","Exterior2nd_AsphShn","Exterior2nd_Brk Cmn","Exterior2nd_BrkFace","Exterior2nd_CBlock","Exterior2nd_CmentBd","Exterior2nd_HdBoard","Exterior2nd_ImStucc","Exterior2nd_MetalSd","Exterior2nd_Other","Exterior2nd_Plywood","Exterior2nd_Stone","Exterior2nd_Stucco","Exterior2nd_VinylSd","Exterior2nd_Wd Sdng","Exterior2nd_Wd Shng","MasVnrType_BrkCmn","MasVnrType_BrkFace","MasVnrType_Stone","ExterQual_Ex","ExterQual_Fa","ExterQual_Gd","ExterQual_TA","ExterCond_Ex","ExterCond_Fa","ExterCond_Gd","ExterCond_Po","ExterCond_TA","Foundation_BrkTil","Foundation_CBlock","Foundation_PConc","Foundation_Slab","Foundation_Stone","Foundation_Wood","BsmtQual_Ex","BsmtQual_Fa","BsmtQual_Gd","BsmtQual_TA","BsmtCond_Fa","BsmtCond_Gd","BsmtCond_Po","BsmtCond_TA","BsmtExposure_Av","BsmtExposure_Gd","BsmtExposure_Mn","BsmtExposure_No","BsmtFinType1_ALQ","BsmtFinType1_BLQ","BsmtFinType1_GLQ","BsmtFinType1_LwQ","BsmtFinType1_Rec","BsmtFinType1_Unf","BsmtFinType2_ALQ","BsmtFinType2_BLQ","BsmtFinType2_GLQ","BsmtFinType2_LwQ","BsmtFinType2_Rec","BsmtFinType2_Unf","Heating_Floor","Heating_GasA","Heating_GasW","Heating_Grav","Heating_OthW","Heating_Wall","HeatingQC_Ex","HeatingQC_Fa","HeatingQC_Gd","HeatingQC_Po","HeatingQC_TA","CentralAir_N","CentralAir_Y","Electrical_FuseA","Electrical_FuseF","Electrical_FuseP","Electrical_Mix","Electrical_SBrkr","KitchenQual_Ex","KitchenQual_Fa","KitchenQual_Gd","KitchenQual_TA","Functional_Maj1","Functional_Maj2","Functional_Min1","Functional_Min2","Functional_Mod","Functional_Sev","Functional_Typ","FireplaceQu_Ex","FireplaceQu_Fa","FireplaceQu_Gd","FireplaceQu_Po","FireplaceQu_TA","GarageType_2Types","GarageType_Attchd","GarageType_Basment","GarageType_BuiltIn","GarageType_CarPort","GarageType_Detchd","GarageFinish_Fin","GarageFinish_RFn","GarageFinish_Unf","GarageQual_Ex","GarageQual_Fa","GarageQual_Gd","GarageQual_Po","GarageQual_TA","GarageCond_Ex","GarageCond_Fa","GarageCond_Gd","GarageCond_Po","GarageCond_TA","PavedDrive_N","PavedDrive_P","PavedDrive_Y","PoolQC_Ex","PoolQC_Fa","PoolQC_Gd","Fence_GdPrv","Fence_GdWo","Fence_MnPrv","Fence_MnWw","MiscFeature_Gar2","MiscFeature_Othr","MiscFeature_Shed","MiscFeature_TenC","SaleType_COD","SaleType_CWD","SaleType_Con","SaleType_ConLD","SaleType_ConLI","SaleType_ConLw","SaleType_New","SaleType_Oth","SaleType_WD","SaleCondition_Abnorml","SaleCondition_AdjLand","SaleCondition_Alloca","SaleCondition_Family","SaleCondition_Normal","SaleCondition_Partial"],"feature_types":[],"gradient_booster":{"model":{"gbtree_model_param":{"num_parallel_tree":"1","num_trees":"1000"},"iteration_indptr":[0,1,2,3,4,5,6,7,8,9,10,11,12,13,14,15,16,17,18,19,20,21,22,23,24,25,26,27,28,29,30,31,32,33,34,35,36,37,38,39,40,41,42,43,44,45,46,47,48,49,50,51,52,53,54,55,56,57,58,59,60,61,62,63,64,65,66,67,68,69,70,71,72,73,74,75,76,77,78,79,80,81,82,83,84,85,86,87,88,89,90,91,92,93,94,95,96,97,98,99,100,101,102,103,104,105,106,107,108,109,110,111,112,113,114,115,116,117,118,119,120,121,122,123,124,125,126,127,128,129,130,131,132,133,134,135,136,137,138,139,140,141,142,143,144,145,146,147,148,149,150,151,152,153,154,155,156,157,158,159,160,161,162,163,164,165,166,167,168,169,170,171,172,173,174,175,176,177,178,179,180,181,182,183,184,185,186,187,188,189,190,191,192,193,194,195,196,197,198,199,200,201,202,203,204,205,206,207,208,209,210,211,212,213,214,215,216,217,218,219,220,221,222,223,224,225,226,227,228,229,230,231,232,233,234,235,236,237,238,239,240,241,242,243,244,245,246,247,248,249,250,251,252,253,254,255,256,257,258,259,260,261,262,263,264,265,266,267,268,269,270,271,272,273,274,275,276,277,278,279,280,281,282,283,284,285,286,287,288,289,290,291,292,293,294,295,296,297,298,299,300,301,302,303,304,305,306,307,308,309,310,311,312,313,314,315,316,317,318,319,320,321,322,323,324,325,326,327,328,329,330,331,332,333,334,335,336,337,338,339,340,341,342,343,344,345,346,347,348,349,350,351,352,353,354,355,356,357,358,359,360,361,362,363,364,365,366,367,368,369,370,371,372,373,374,375,376,377,378,379,380,381,382,383,384,385,386,387,388,389,390,391,392,393,394,395,396,397,398,399,400,401,402,403,404,405,406,407,408,409,410,411,412,413,414,415,416,417,418,419,420,421,422,423,424,425,426,427,428,429,430,431,432,433,434,435,436,437,438,439,440,441,442,443,444,445,446,447,448,449,450,451,452,453,454,455,456,457,458,459,460,461,462,463,464,465,466,467,468,469,470,471,472,473,474,475,476,477,478,479,480,481,482,483,484,485,486,487,488,489,490,491,492,493,494,495,496,497,498,499,500,501,502,503,504,505,506,507,508,509,510,511,512,513,514,515,516,517,518,519,520,521,522,523,524,525,526,527,528,529,530,531,532,533,534,535,536,537,538,539,540,541,542,543,544,545,546,547,548,549,550,551,552,553,554,555,556,557,558,559,560,561,562,563,564,565,566,567,568,569,570,571,572,573,574,575,576,577,578,579,580,581,582,583,584,585,586,587,588,589,590,591,592,593,594,595,596,597,598,599,600,601,602,603,604,605,606,607,608,609,610,611,612,613,614,615,616,617,618,619,620,621,622,623,624,625,626,627,628,629,630,631,632,633,634,635,636,637,638,639,640,641,642,643,644,645,646,647,648,649,650,651,652,653,654,655,656,657,658,659,660,661,662,663,664,665,666,667,668,669,670,671,672,673,674,675,676,677,678,679,680,681,682,683,684,685,686,687,688,689,690,691,692,693,694,695,696,697,698,699,700,701,702,703,704,705,706,707,708,709,710,711,712,713,714,715,716,717,718,719,720,721,722,723,724,725,726,727,728,729,730,731,732,733,734,735,736,737,738,739,740,741,742,743,744,745,746,747,748,749,750,751,752,753,754,755,756,757,758,759,760,761,762,763,764,765,766,767,768,769,770,771,772,773,774,775,776,777,778,779,780,781,782,783,784,785,786,787,788,789,790,791,792,793,794,795,796,797,798,799,800,801,802,803,804,805,806,807,808,809,810,811,812,813,814,815,816,817,818,819,820,821,822,823,824,825,826,827,828,829,830,831,832,833,834,835,836,837,838,839,840,841,842,843,844,845,846,847,848,849,850,851,852,853,854,855,856,857,858,859,860,861,862,863,864,865,866,867,868,869,870,871,872,873,874,875,876,877,878,879,880,881,882,883,884,885,886,887,888,889,890,891,892,893,894,895,896,897,898,899,900,901,902,903,904,905,906,907,908,909,910,911,912,913,914,915,916,917,918,919,920,921,922,923,924,925,926,927,928,929,930,931,932,933,934,935,936,937,938,939,940,941,942,943,944,945,946,947,948,949,950,951,952,953,954,955,956,957,958,959,960,961,962,963,964,965,966,967,968,969,970,971,972,973,974,975,976,977,978,979,980,981,982,983,984,985,986,987,988,989,990,991,992,993,994,995,996,997,998,999,1000],"tree_info":[0,0,0,0,0,0,0,0,0,0,0,0,0,0,0,0,0,0,0,0,0,0,0,0,0,0,0,0,0,0,0,0,0,0,0,0,0,0,0,0,0,0,0,0,0,0,0,0,0,0,0,0,0,0,0,0,0,0,0,0,0,0,0,0,0,0,0,0,0,0,0,0,0,0,0,0,0,0,0,0,0,0,0,0,0,0,0,0,0,0,0,0,0,0,0,0,0,0,0,0,0,0,0,0,0,0,0,0,0,0,0,0,0,0,0,0,0,0,0,0,0,0,0,0,0,0,0,0,0,0,0,0,0,0,0,0,0,0,0,0,0,0,0,0,0,0,0,0,0,0,0,0,0,0,0,0,0,0,0,0,0,0,0,0,0,0,0,0,0,0,0,0,0,0,0,0,0,0,0,0,0,0,0,0,0,0,0,0,0,0,0,0,0,0,0,0,0,0,0,0,0,0,0,0,0,0,0,0,0,0,0,0,0,0,0,0,0,0,0,0,0,0,0,0,0,0,0,0,0,0,0,0,0,0,0,0,0,0,0,0,0,0,0,0,0,0,0,0,0,0,0,0,0,0,0,0,0,0,0,0,0,0,0,0,0,0,0,0,0,0,0,0,0,0,0,0,0,0,0,0,0,0,0,0,0,0,0,0,0,0,0,0,0,0,0,0,0,0,0,0,0,0,0,0,0,0,0,0,0,0,0,0,0,0,0,0,0,0,0,0,0,0,0,0,0,0,0,0,0,0,0,0,0,0,0,0,0,0,0,0,0,0,0,0,0,0,0,0,0,0,0,0,0,0,0,0,0,0,0,0,0,0,0,0,0,0,0,0,0,0,0,0,0,0,0,0,0,0,0,0,0,0,0,0,0,0,0,0,0,0,0,0,0,0,0,0,0,0,0,0,0,0,0,0,0,0,0,0,0,0,0,0,0,0,0,0,0,0,0,0,0,0,0,0,0,0,0,0,0,0,0,0,0,0,0,0,0,0,0,0,0,0,0,0,0,0,0,0,0,0,0,0,0,0,0,0,0,0,0,0,0,0,0,0,0,0,0,0,0,0,0,0,0,0,0,0,0,0,0,0,0,0,0,0,0,0,0,0,0,0,0,0,0,0,0,0,0,0,0,0,0,0,0,0,0,0,0,0,0,0,0,0,0,0,0,0,0,0,0,0,0,0,0,0,0,0,0,0,0,0,0,0,0,0,0,0,0,0,0,0,0,0,0,0,0,0,0,0,0,0,0,0,0,0,0,0,0,0,0,0,0,0,0,0,0,0,0,0,0,0,0,0,0,0,0,0,0,0,0,0,0,0,0,0,0,0,0,0,0,0,0,0,0,0,0,0,0,0,0,0,0,0,0,0,0,0,0,0,0,0,0,0,0,0,0,0,0,0,0,0,0,0,0,0,0,0,0,0,0,0,0,0,0,0,0,0,0,0,0,0,0,0,0,0,0,0,0,0,0,0,0,0,0,0,0,0,0,0,0,0,0,0,0,0,0,0,0,0,0,0,0,0,0,0,0,0,0,0,0,0,0,0,0,0,0,0,0,0,0,0,0,0,0,0,0,0,0,0,0,0,0,0,0,0,0,0,0,0,0,0,0,0,0,0,0,0,0,0,0,0,0,0,0,0,0,0,0,0,0,0,0,0,0,0,0,0,0,0,0,0,0,0,0,0,0,0,0,0,0,0,0,0,0,0,0,0,0,0,0,0,0,0,0,0,0,0,0,0,0,0,0,0,0,0,0,0,0,0,0,0,0,0,0,0,0,0,0,0,0,0,0,0,0,0,0,0,0,0,0,0,0,0,0,0,0,0,0,0,0,0,0,0,0,0,0,0,0,0,0,0,0,0,0,0,0,0,0,0,0,0,0,0,0,0,0,0,0,0,0,0,0,0,0,0,0,0,0,0,0,0,0,0,0,0,0,0,0,0,0,0,0,0,0,0,0,0,0,0,0,0,0,0,0,0,0,0,0,0,0,0,0,0,0,0,0,0,0,0,0,0,0,0,0,0,0,0,0,0,0,0,0,0,0,0,0,0,0,0,0,0,0,0,0,0,0,0,0,0,0,0,0,0,0,0,0,0,0,0,0,0,0,0,0,0,0,0,0,0,0,0,0,0,0,0,0,0,0,0,0,0,0,0,0,0,0,0,0,0,0,0,0,0,0,0,0,0,0,0,0,0,0,0,0,0,0,0,0,0,0,0,0,0,0,0,0,0,0,0,0,0,0,0,0,0,0,0,0,0,0,0],"trees":[{"base_weights":[4.7868213E3,-1.960223E4,1.2424468E5,-3.815535E4,2.7457855E4,9.683252E4,2.046049E5,-5.2847666E3,-1.5580265E3,1.5605306E3,7.8114854E3,7.1490015E3,1.3959278E4,7.622583E3,2.2228209E4],"categories":[],"categories_nodes":[],"categories_segments":[],"categories_sizes":[],"default_left":[0,0,0,0,0,0,0,0,0,0,0,0,0,0,0],"id":0,"left_children":[1,3,5,7,9,11,13,-1,-1,-1,-1,-1,-1,-1,-1],"loss_changes":[2.5604567E12,6.38419E11,3.084119E11,1.729771E11,1.2306683E11,1.1247321E11,6.7023405E10,0E0,0E0,0E0,0E0,0E0,0E0,0E0,0E0],"parents":[2147483647,0,0,1,1,2,2,3,3,4,4,5,5,6,6],"right_children":[2,4,6,8,10,12,14,-1,-1,-1,-1,-1,-1,-1,-1],"split_conditions":[1.3747946E0,6.5147924E-1,2.09811E0,-2.6168588E-1,9.8141235E-1,1.0099674E0,1.6503069E0,-5.2847666E3,-1.5580265E3,1.5605306E3,7.8114854E3,7.1490015E3,1.3959278E4,7.622583E3,2.2228209E4],"split_indices":[3,3,3,15,15,15,25,0,0,0,0,0,0,0,0],"split_type":[0,0,0,0,0,0,0,0,0,0,0,0,0,0,0],"sum_hessian":[8.77E2,7.29E2,1.48E2,5.23E2,2.06E2,1.12E2,3.6E1,3.16E2,2.07E2,1.68E2,3.8E1,7.2E1,4E1,5E0,3.1E1],"tree_param":{"num_deleted":"0","num_feature":"287","num_nodes":"15","size_leaf_vector":"1"}},{"base_weights":[9.389548E2,-2.0190145E4,1.1182132E5,-4.743406E4,7.7227056E3,8.232527E4,1.8382867E5,-4.202093E3,-8.584727E3,-3.8855193E3,1.8260227E3,4.95745E3,1.1217748E4,1.3106489E4,2.3810506E4],"categories":[],"categories_nodes":[],"categories_segments":[],"categories_sizes":[],"default_left":[0,0,0,0,0,0,0,0,0,0,0,0,0,0,0],"id":1,"left_children":[1,3,5,7,9,11,13,-1,-1,-1,-1,-1,-1,-1,-1],"loss_changes":[2.0053897E12,5.4713365E11,2.7584496E11,7.208121E10,1.7543982E11,9.1229454E10,8.048214E10,0E0,0E0,0E0,0E0,0E0,0E0,0E0,0E0],"parents":[2147483647,0,0,1,1,2,2,3,3,4,4,5,5,6,6],"right_children":[2,4,6,8,10,12,14,-1,-1,-1,-1,-1,-1,-1,-1],"split_conditions":[1.3747946E0,7.897405E-1,2.09811E0,1E0,-7.1836114E-2,-3.430202E-2,1.0880181E0,-4.202093E3,-8.584727E3,-3.8855193E3,1.8260227E3,4.95745E3,1.1217748E4,1.3106489E4,2.3810506E4],"split_indices":[3,18,3,216,3,8,15,0,0,0,0,0,0,0,0],"split_type":[0,0,0,0,0,0,0,0,0,0,0,0,0,0,0],"sum_hessian":[8.54E2,7.18E2,1.36E2,3.63E2,3.55E2,9.8E1,3.8E1,3.2E2,4.3E1,6.5E1,2.9E2,4.8E1,5E1,2.1E1,1.7E1],"tree_param":{"num_deleted":"0","num_feature":"287","num_nodes":"15","size_leaf_vector":"1"}},{"base_weights":[-9.613671E2,-3.2236328E4,5.0940617E4,-4.2047973E4,1.0962917E4,2.3771744E4,1.2322372E5,-5.6698286E3,-2.6796042E3,2.344271E3,-1.3952054E3,4.0927173E3,-7.7586346E2,9.213264E3,2.243268E4],"categories":[],"categories_nodes":[],"categories_segments":[],"categories_sizes":[],"default_left":[0,0,0,0,0,0,0,0,0,0,0,0,0,0,0],"id":2,"left_children":[1,3,5,7,9,11,13,-1,-1,-1,-1,-1,-1,-1,-1],"loss_changes":[1.3943757E12,2.2764762E11,6.313944E11,9.6126435E10,3.1420445E10,1.2797396E11,2.5595203E11,0E0,0E0,0E0,0E0,0E0,0E0,0E0,0E0],"parents":[2147483647,0,0,1,1,2,2,3,3,4,4,5,5,6,6],"right_children":[2,4,6,8,10,12,14,-1,-1,-1,-1,-1,-1,-1,-1],"split_conditions":[1.990029E-1,3.5288242E-1,1.6503069E0,3.1172463E-1,1E0,1E0,1.8979619E0,-5.6698286E3,-2.6796042E3,2.344271E3,-1.3952054E3,4.0927173E3,-7.7586346E2,9.213264E3,2.243268E4],"split_indices":[15,12,25,25,184,247,8,0,0,0,0,0,0,0,0],"split_type":[0,0,0,0,0,0,0,0,0,0,0,0,0,0,0],"sum_hessian":[8.57E2,5.35E2,3.22E2,4.36E2,9.9E1,2.35E2,8.7E1,2.21E2,2.15E2,6.6E1,3.3E1,1.52E2,8.3E1,6.8E1,1.9E1],"tree_param":{"num_deleted":"0","num_feature":"287","num_nodes":"15","size_leaf_vector":"1"}},{"base_weights":[-3.5005634E2,-1.7777322E4,9.493003E4,-3.132643E4,2.1969947E4,8.30358E4,3.0396072E4,-4.3317515E3,-1.2084486E3,4.482546E2,5.0175854E3,6.537806E3,1.2612902E4],"categories":[],"categories_nodes":[],"categories_segments":[],"categories_sizes":[],"default_left":[0,0,0,0,0,0,0,0,0,0,0,0,0],"id":3,"left_children":[1,3,5,7,9,11,-1,-1,-1,-1,-1,-1,-1],"loss_changes":[1.471205E12,4.0405467E11,3.1537798E11,1.2845561E11,9.398545E10,9.143563E10,0E0,0E0,0E0,0E0,0E0,0E0,0E0],"parents":[2147483647,0,0,1,1,2,2,3,3,4,4,5,5],"right_children":[2,4,6,8,10,12,-1,-1,-1,-1,-1,-1,-1],"split_conditions":[1.3747946E0,6.5147924E-1,2.683465E0,-2.6168588E-1,5.1501256E-1,1.4370958E0,3.0396072E4,-4.3317515E3,-1.2084486E3,4.482546E2,5.0175854E3,6.537806E3,1.2612902E4],"split_indices":[3,3,13,15,15,12,0,0,0,0,0,0,0],"split_type":[0,0,0,0,0,0,0,0,0,0,0,0,0],"sum_hessian":[8.84E2,7.48E2,1.36E2,5.58E2,1.9E2,1.3E2,6E0,3.43E2,2.15E2,1.18E2,7.2E1,9.4E1,3.6E1],"tree_param":{"num_deleted":"0","num_feature":"287","num_nodes":"13","size_leaf_vector":"1"}},{"base_weights":[3.584219E2,-1.5906719E4,8.2238695E4,-4.0502047E4,3.051001E3,4.863917E4,1.2222843E5,-6.186288E3,-3.2636907E3,8.963361E2,-3.9438704E3,2.4537468E3,7.2729985E3,1.1196243E4,2.5336084E4],"categories":[],"categories_nodes":[],"categories_segments":[],"categories_sizes":[],"default_left":[0,0,0,0,0,0,0,0,0,0,0,0,0,0,0],"id":4,"left_children":[1,3,5,7,9,11,13,-1,-1,-1,-1,-1,-1,-1,-1],"loss_changes":[1.173287E12,3.42833E11,1.9022571E11,5.1742867E10,1.04858714E11,4.52464E10,6.048265E10,0E0,0E0,0E0,0E0,0E0,0E0,0E0,0E0],"parents":[2147483647,0,0,1,1,2,2,3,3,4,4,5,5,6,6],"right_children":[2,4,6,8,10,12,14,-1,-1,-1,-1,-1,-1,-1,-1],"split_conditions":[1.3747946E0,-7.1836114E-2,1E0,-7.6941186E-1,1E0,8.9841586E-1,2.3259776E0,-6.186288E3,-3.2636907E3,8.963361E2,-3.9438704E3,2.4537468E3,7.2729985E3,1.1196243E4,2.5336084E4],"split_indices":[3,3,181,11,40,26,13,0,0,0,0,0,0,0,0],"split_type":[0,0,0,0,0,0,0,0,0,0,0,0,0,0,0],"sum_hessian":[8.79E2,7.34E2,1.45E2,3.19E2,4.15E2,8E1,6.5E1,8.4E1,2.35E2,3.65E2,5E1,4.1E1,3.9E1,6.2E1,3E0],"tree_param":{"num_deleted":"0","num_feature":"287","num_nodes":"15","size_leaf_vector":"1"}},{"base_weights":[1.2157577E3,-1.500844E4,5.437167E4,-3.1533547E4,1.3937917E4,2.0089969E4,8.981215E4,-4.5298003E3,-2.0653318E3,-4.3698154E2,3.7371594E3,3.025727E3,-2.8058054E3,6.6284243E3,1.3422644E4],"categories":[],"categories_nodes":[],"categories_segments":[],"categories_sizes":[],"default_left":[0,0,0,0,0,0,0,0,0,0,0,0,0,0,0],"id":5,"left_children":[1,3,5,7,9,11,13,-1,-1,-1,-1,-1,-1,-1,-1],"loss_changes":[7.597386E11,3.2332015E11,2.4847745E11,6.3461425E10,1.0570159E11,5.273972E10,9.6645415E10,0E0,0E0,0E0,0E0,0E0,0E0,0E0,0E0],"parents":[2147483647,0,0,1,1,2,2,3,3,4,4,5,5,6,6],"right_children":[2,4,6,8,10,12,14,-1,-1,-1,-1,-1,-1,-1,-1],"split_conditions":[5.7593006E-1,4.548204E-1,6.597988E-1,-3.2819915E-1,4.9002635E-1,4.3285794E0,1.3620547E0,-4.5298003E3,-2.0653318E3,-4.3698154E2,3.7371594E3,3.025727E3,-2.8058054E3,6.6284243E3,1.3422644E4],"split_indices":[15,5,26,8,12,21,12,0,0,0,0,0,0,0,0],"split_type":[0,0,0,0,0,0,0,0,0,0,0,0,0,0,0],"sum_hessian":[8.79E2,6.74E2,2.05E2,4.29E2,2.45E2,1.05E2,1E2,1.88E2,2.41E2,1.38E2,1.07E2,8.7E1,1.8E1,6.7E1,3.3E1],"tree_param":{"num_deleted":"0","num_feature":"287","num_nodes":"15","size_leaf_vector":"1"}},{"base_weights":[-1.994128E3,-2.3245916E4,3.4761254E4,-3.8982293E4,-1.293295E4,1.8665666E4,7.532219E4,-5.8658926E3,-3.215071E3,1.5849141E2,-2.2572046E3,1.2810768E3,8.424421E3,2.887535E3,9.222213E3],"categories":[],"categories_nodes":[],"categories_segments":[],"categories_sizes":[],"default_left":[0,0,0,0,0,0,0,0,0,0,0,0,0,0,0],"id":6,"left_children":[1,3,5,7,9,11,13,-1,-1,-1,-1,-1,-1,-1,-1],"loss_changes":[6.928782E11,9.070212E10,2.1077098E11,2.7955855E10,4.7755E10,8.8766415E10,6.955234E10,0E0,0E0,0E0,0E0,0E0,0E0,0E0,0E0],"parents":[2147483647,0,0,1,1,2,2,3,3,4,4,5,5,6,6],"right_children":[2,4,6,8,10,12,14,-1,-1,-1,-1,-1,-1,-1,-1],"split_conditions":[6.5147924E-1,-6.9572324E-1,8.7099934E-1,-7.951515E-1,1E0,2.09811E0,4.425864E-1,-5.8658926E3,-3.215071E3,1.5849141E2,-2.2572046E3,1.2810768E3,8.424421E3,2.887535E3,9.222213E3],"split_indices":[3,15,15,3,247,3,6,0,0,0,0,0,0,0,0],"split_type":[0,0,0,0,0,0,0,0,0,0,0,0,0,0,0],"sum_hessian":[8.85E2,5.61E2,3.24E2,2.21E2,3.4E2,2.33E2,9.1E1,5.5E1,1.66E2,1.36E2,2.04E2,2.15E2,1.8E1,2.5E1,6.6E1],"tree_param":{"num_deleted":"0","num_feature":"287","num_nodes":"15","size_leaf_vector":"1"}},{"base_weights":[1.3964478E2,-1.1512728E4,6.114714E4,5.3513887E3,-2.5565484E4,4.908161E4,1.7524262E5,-4.8095068E2,2.195072E3,-3.2801907E3,-7.346508E2,2.56166E3,7.006294E3,7.856019E3,2.4689041E4],"categories":[],"categories_nodes":[],"categories_segments":[],"categories_sizes":[],"default_left":[0,0,0,0,0,0,0,0,0,0,0,0,0,0,0],"id":7,"left_children":[1,3,5,7,9,11,13,-1,-1,-1,-1,-1,-1,-1,-1],"loss_changes":[6.205932E11,1.738485E11,1.8412601E11,5.6439366E10,5.2495106E10,6.1223076E10,7.065633E10,0E0,0E0,0E0,0E0,0E0,0E0,0E0,0E0],"parents":[2147483647,0,0,1,1,2,2,3,3,4,4,5,5,6,6],"right_children":[2,4,6,8,10,12,14,-1,-1,-1,-1,-1,-1,-1,-1],"split_conditions":[1.3747946E0,1E0,2.605522E0,2.621038E-1,-3.7766475E-2,7.2018015E-1,-5.431388E-1,-4.8095068E2,2.195072E3,-3.2801907E3,-7.346508E2,2.56166E3,7.006294E3,7.856019E3,2.4689041E4],"split_indices":[3,247,18,26,2,8,8,0,0,0,0,0,0,0,0],"split_type":[0,0,0,0,0,0,0,0,0,0,0,0,0,0,0],"sum_hessian":[8.71E2,7.32E2,1.39E2,3.33E2,3.99E2,1.27E2,1.2E1,2.07E2,1.26E2,2.85E2,1.14E2,6.1E1,6.6E1,6E0,6E0],"tree_param":{"num_deleted":"0","num_feature":"287","num_nodes":"15","size_leaf_vector":"1"}},{"base_weights":[4.8189728E1,-1.887106E4,3.111727E4,-2.7881342E4,-4.372151E3,1.5277534E4,6.6409375E4,-4.0615051E3,-1.8451133E3,-9.437884E2,1.9952246E3,3.066335E2,4.439284E3,7.055518E3,-9.253865E3],"categories":[],"categories_nodes":[],"categories_segments":[],"categories_sizes":[],"default_left":[0,0,0,0,0,0,0,0,0,0,0,0,0,0,0],"id":8,"left_children":[1,3,5,7,9,11,13,-1,-1,-1,-1,-1,-1,-1,-1],"loss_changes":[5.0786183E11,7.003138E10,1.8178422E11,3.8997606E10,2.5695033E10,8.056983E10,7.30848E10,0E0,0E0,0E0,0E0,0E0,0E0,0E0,0E0],"parents":[2147483647,0,0,1,1,2,2,3,3,4,4,5,5,6,6],"right_children":[2,4,6,8,10,12,14,-1,-1,-1,-1,-1,-1,-1,-1],"split_conditions":[6.5147924E-1,6.004949E-1,8.7099934E-1,-5.0568116E-1,3.1701952E-1,9.407497E-1,1E0,-4.0615051E3,-1.8451133E3,-9.437884E2,1.9952246E3,3.066335E2,4.439284E3,7.055518E3,-9.253865E3],"split_indices":[3,23,15,5,2,11,70,0,0,0,0,0,0,0,0],"split_type":[0,0,0,0,0,0,0,0,0,0,0,0,0,0,0],"sum_hessian":[8.62E2,5.36E2,3.26E2,3.3E2,2.06E2,2.26E2,1E2,1.39E2,1.91E2,1.71E2,3.5E1,1.6E2,6.6E1,9.8E1,2E0],"tree_param":{"num_deleted":"0","num_feature":"287","num_nodes":"15","size_leaf_vector":"1"}},{"base_weights":[4.398013E2,-9.309921E3,6.3809203E4,-2.2917709E4,6.13085E3,3.381946E4,1.1393552E5,-3.2742974E3,-9.2360266E2,-4.8182104E2,2.8927751E3,4.346148E3,-1.4767069E3,6.9504595E3,1.7178379E4],"categories":[],"categories_nodes":[],"categories_segments":[],"categories_sizes":[],"default_left":[0,0,0,0,0,0,0,0,0,0,0,0,0,0,0],"id":9,"left_children":[1,3,5,7,9,11,13,-1,-1,-1,-1,-1,-1,-1,-1],"loss_changes":[5.374918E11,1.58567E11,1.7052667E11,5.3602468E10,8.849943E10,3.5308757E10,9.858109E10,0E0,0E0,0E0,0E0,0E0,0E0,0E0,0E0],"parents":[2147483647,0,0,1,1,2,2,3,3,4,4,5,5,6,6],"right_children":[2,4,6,8,10,12,14,-1,-1,-1,-1,-1,-1,-1,-1],"split_conditions":[1.6503069E0,-1.8363531E-1,1E0,-1.8111627E-1,3.977706E-1,1E0,1.1318026E0,-3.2742974E3,-9.2360266E2,-4.8182104E2,2.8927751E3,4.346148E3,-1.4767069E3,6.9504595E3,1.7178379E4],"split_indices":[25,15,223,11,8,226,15,0,0,0,0,0,0,0,0],"split_type":[0,0,0,0,0,0,0,0,0,0,0,0,0,0,0],"sum_hessian":[8.68E2,7.53E2,1.15E2,4E2,3.53E2,7.3E1,4.2E1,2.32E2,1.68E2,2.39E2,1.14E2,6.1E1,1.2E1,2.5E1,1.7E1],"tree_param":{"num_deleted":"0","num_feature":"287","num_nodes":"15","size_leaf_vector":"1"}},{"base_weights":[1.094659E3,-1.1164671E4,4.2944215E4,-1.7103254E4,1.765179E4,2.9691648E4,1.03814984E5,-4.2135376E3,-1.2852307E3,-1.768039E3,2.909476E3,2.4827678E2,4.1263413E3,8.252043E3,2.1507826E4],"categories":[],"categories_nodes":[],"categories_segments":[],"categories_sizes":[],"default_left":[0,0,0,0,0,0,0,0,0,0,0,0,0,0,0],"id":10,"left_children":[1,3,5,7,9,11,13,-1,-1,-1,-1,-1,-1,-1,-1],"loss_changes":[4.4836995E11,1.1598505E11,1.5664293E11,5.915458E10,4.7413793E10,5.153371E10,6.517719E10,0E0,0E0,0E0,0E0,0E0,0E0,0E0,0E0],"parents":[2147483647,0,0,1,1,2,2,3,3,4,4,5,5,6,6],"right_children":[2,4,6,8,10,12,14,-1,-1,-1,-1,-1,-1,-1,-1],"split_conditions":[7.628929E-1,6.6159534E-1,1.4440048E0,-7.951515E-1,6.004949E-1,6.5147924E-1,2.8461676E0,-4.2135376E3,-1.2852307E3,-1.768039E3,2.909476E3,2.4827678E2,4.1263413E3,8.252043E3,2.1507826E4],"split_indices":[11,15,15,3,23,3,13,0,0,0,0,0,0,0,0],"split_type":[0,0,0,0,0,0,0,0,0,0,0,0,0,0,0],"sum_hessian":[8.72E2,6.75E2,1.97E2,5.6E2,1.15E2,1.63E2,3.4E1,8E1,4.8E2,2.8E1,8.7E1,4.9E1,1.14E2,3E1,4E0],"tree_param":{"num_deleted":"0","num_feature":"287","num_nodes":"15","size_leaf_vector":"1"}},{"base_weights":[1.3353988E3,-1.0387256E4,3.4402566E4,-2.0354734E4,4.946004E3,1.1581712E4,6.5094902E4,-3.739938E3,-1.5528439E3,-1.8324104E2,2.3206702E3,-7.4090497E2,2.3797607E3,7.029096E3,-7.718328E3],"categories":[],"categories_nodes":[],"categories_segments":[],"categories_sizes":[],"default_left":[0,0,0,0,0,0,0,0,0,0,0,0,0,0,0],"id":11,"left_children":[1,3,5,7,9,11,13,-1,-1,-1,-1,-1,-1,-1,-1],"loss_changes":[3.4806596E11,1.0142958E11,1.6384603E11,3.2488751E10,3.247251E10,3.1726842E10,7.9353905E10,0E0,0E0,0E0,0E0,0E0,0E0,0E0,0E0],"parents":[2147483647,0,0,1,1,2,2,3,3,4,4,5,5,6,6],"right_children":[2,4,6,8,10,12,14,-1,-1,-1,-1,-1,-1,-1,-1],"split_conditions":[5.41664E-1,1.8985446E-1,3.4333327E-1,-8.514996E-1,8.198983E-1,3.9413288E-1,1E0,-3.739938E3,-1.5528439E3,-1.8324104E2,2.3206702E3,-7.4090497E2,2.3797607E3,7.029096E3,-7.718328E3],"split_indices":[15,5,11,11,11,6,70,0,0,0,0,0,0,0,0],"split_type":[0,0,0,0,0,0,0,0,0,0,0,0,0,0,0],"sum_hessian":[8.96E2,6.62E2,2.34E2,4.01E2,2.61E2,1.35E2,9.9E1,8.7E1,3.14E2,1.91E2,7E1,5.3E1,8.2E1,9.6E1,3E0],"tree_param":{"num_deleted":"0","num_feature":"287","num_nodes":"15","size_leaf_vector":"1"}},{"base_weights":[5.582757E2,-3.953838E3,6.287716E4,1.2946054E4,-1.2919532E4,4.9340527E4,1.7422733E5,-4.4325974E2,2.0555173E3,-2.3714128E3,-6.1006116E2,3.0449343E3,7.7576714E3,1.9683006E4,3.0606797E3],"categories":[],"categories_nodes":[],"categories_segments":[],"categories_sizes":[],"default_left":[0,0,0,0,0,0,0,0,0,0,0,0,0,0,0],"id":12,"left_children":[1,3,5,7,9,11,13,-1,-1,-1,-1,-1,-1,-1,-1],"loss_changes":[2.4572736E11,1.23655455E11,8.03346E10,3.7513966E10,3.908813E10,2.644226E10,1.3452984E10,0E0,0E0,0E0,0E0,0E0,0E0,0E0,0E0],"parents":[2147483647,0,0,1,1,2,2,3,3,4,4,5,5,6,6],"right_children":[2,4,6,8,10,12,14,-1,-1,-1,-1,-1,-1,-1,-1],"split_conditions":[1E0,1E0,2.605522E0,-4.7256875E-1,-5.2860755E-1,1E0,1.2806852E0,-4.4325974E2,2.0555173E3,-2.3714128E3,-6.1006116E2,3.0449343E3,7.7576714E3,1.9683006E4,3.0606797E3],"split_indices":[223,169,18,12,26,79,4,0,0,0,0,0,0,0,0],"split_type":[0,0,0,0,0,0,0,0,0,0,0,0,0,0,0],"sum_hessian":[8.72E2,8.14E2,5.8E1,2.82E2,5.32E2,5.3E1,5E0,8.6E1,1.96E2,2.05E2,3.27E2,3.3E1,2E1,4E0,1E0],"tree_param":{"num_deleted":"0","num_feature":"287","num_nodes":"15","size_leaf_vector":"1"}},{"base_weights":[2.453827E1,-1.260256E4,1.892883E4,-2.0548053E4,2.3099153E3,1.11301455E4,5.773035E4,-1.7394062E3,-4.192808E3,-1.8790002E3,9.584814E2,8.2449884E2,4.439003E3,6.520241E3,-1.0099156E4],"categories":[],"categories_nodes":[],"categories_segments":[],"categories_sizes":[],"default_left":[0,0,0,0,0,0,0,0,0,0,0,0,0,0,0],"id":13,"left_children":[1,3,5,7,9,11,13,-1,-1,-1,-1,-1,-1,-1,-1],"loss_changes":[2.0743566E11,6.177918E10,1.0466254E11,2.2197699E10,2.8117051E10,2.7558371E10,7.5371725E10,0E0,0E0,0E0,0E0,0E0,0E0,0E0,0E0],"parents":[2147483647,0,0,1,1,2,2,3,3,4,4,5,5,6,6],"right_children":[2,4,6,8,10,12,14,-1,-1,-1,-1,-1,-1,-1,-1],"split_conditions":[7.88283E-2,7.791566E-1,1E0,1E0,1E0,1E0,1.08913E0,-1.7394062E3,-4.192808E3,-1.8790002E3,9.584814E2,8.2449884E2,4.439003E3,6.520241E3,-1.0099156E4],"split_indices":[11,13,181,216,39,78,2,0,0,0,0,0,0,0,0],"split_type":[0,0,0,0,0,0,0,0,0,0,0,0,0,0,0],"sum_hessian":[8.67E2,5.2E2,3.47E2,3.39E2,1.81E2,2.9E2,5.7E1,2.97E2,4.2E1,4.6E1,1.35E2,2.68E2,2.2E1,5.5E1,2E0],"tree_param":{"num_deleted":"0","num_feature":"287","num_nodes":"15","size_leaf_vector":"1"}},{"base_weights":[5.1008203E2,-7.176824E3,3.8357953E4,4.147988E3,-1.6649092E4,3.4832656E4,1.9361102E4,-4.8596994E2,1.0071091E3,-3.821908E3,-1.3716334E3,3.7332244E3,-9.425879E3],"categories":[],"categories_nodes":[],"categories_segments":[],"categories_sizes":[],"default_left":[0,0,0,0,0,0,0,0,0,0,0,0,0],"id":14,"left_children":[1,3,5,7,9,11,-1,-1,-1,-1,-1,-1,-1],"loss_changes":[2.4989583E11,7.6661015E10,7.261638E10,1.7442173E10,2.4083735E10,4.966146E10,0E0,0E0,0E0,0E0,0E0,0E0,0E0],"parents":[2147483647,0,0,1,1,2,2,3,3,4,4,5,5],"right_children":[2,4,6,8,10,12,-1,-1,-1,-1,-1,-1,-1],"split_conditions":[1.3747946E0,1E0,5.224363E0,-2.9683352E-1,-5.171998E-1,1E0,1.9361102E4,-4.8596994E2,1.0071091E3,-3.821908E3,-1.3716334E3,3.7332244E3,-9.425879E3],"split_indices":[3,247,7,28,4,49,0,0,0,0,0,0,0],"split_type":[0,0,0,0,0,0,0,0,0,0,0,0,0],"sum_hessian":[8.57E2,7.13E2,1.44E2,3.25E2,3.88E2,1.42E2,2E0,1.29E2,1.96E2,4.5E1,3.43E2,1.4E2,2E0],"tree_param":{"num_deleted":"0","num_feature":"287","num_nodes":"13","size_leaf_vector":"1"}},{"base_weights":[-1.941328E3,-1.343241E4,1.2105023E4,-1.9979535E4,-5.6987544E3,5.621935E3,4.291236E4,-2.7668264E3,-1.374379E3,-6.768322E2,3.3755466E3,1.4436008E2,3.9124575E3,4.821159E3,-8.797487E3],"categories":[],"categories_nodes":[],"categories_segments":[],"categories_sizes":[],"default_left":[0,0,0,0,0,0,0,0,0,0,0,0,0,0,0],"id":15,"left_children":[1,3,5,7,9,11,13,-1,-1,-1,-1,-1,-1,-1,-1],"loss_changes":[1.4058738E11,2.4139448E10,7.805161E10,1.2037472E10,9.554436E9,4.5438714E10,5.140634E10,0E0,0E0,0E0,0E0,0E0,0E0,0E0,0E0],"parents":[2147483647,0,0,1,1,2,2,3,3,4,4,5,5,6,6],"right_children":[2,4,6,8,10,12,14,-1,-1,-1,-1,-1,-1,-1,-1],"split_conditions":[-4.0859856E-2,-4.5268327E-2,1.4746623E0,-7.566408E-1,1E0,1.6686382E0,3.2029529E0,-2.7668264E3,-1.374379E3,-6.768322E2,3.3755466E3,1.4436008E2,3.9124575E3,4.821159E3,-8.797487E3],"split_indices":[15,8,8,15,278,15,8,0,0,0,0,0,0,0,0],"split_type":[0,0,0,0,0,0,0,0,0,0,0,0,0,0,0],"sum_hessian":[8.69E2,4.78E2,3.91E2,2.58E2,2.2E2,3.24E2,6.7E1,1.14E2,1.44E2,2.15E2,5E0,2.89E2,3.5E1,6.5E1,2E0],"tree_param":{"num_deleted":"0","num_feature":"287","num_nodes":"15","size_leaf_vector":"1"}},{"base_weights":[1.8515025E2,-3.1607793E3,7.732227E4,-1.5668023E4,6.933456E3,1.9982842E4,5.576437E4,-2.714366E3,-9.3652167E2,8.566024E1,2.937187E3,6.619394E3,-6.7119463E3],"categories":[],"categories_nodes":[],"categories_segments":[],"categories_sizes":[],"default_left":[0,0,0,0,0,0,0,0,0,0,0,0,0],"id":16,"left_children":[1,3,5,7,9,-1,11,-1,-1,-1,-1,-1,-1],"loss_changes":[2.2349691E11,1.0489701E11,8.393181E10,2.6579755E10,6.269812E10,0E0,4.545491E10,0E0,0E0,0E0,0E0,0E0,0E0],"parents":[2147483647,0,0,1,1,2,2,3,3,4,4,6,6],"right_children":[2,4,6,8,10,-1,12,-1,-1,-1,-1,-1,-1],"split_conditions":[2.09811E0,5.495824E-2,5.8794695E-1,-4.86114E-1,1.486465E-1,1.9982842E4,2.0497744E0,-2.714366E3,-9.3652167E2,8.566024E1,2.937187E3,6.619394E3,-6.7119463E3],"split_indices":[3,6,6,8,2,0,1,0,0,0,0,0,0],"split_type":[0,0,0,0,0,0,0,0,0,0,0,0,0],"sum_hessian":[8.64E2,8.29E2,3.5E1,3.7E2,4.59E2,4E0,3.1E1,1.3E2,2.4E2,3.62E2,9.7E1,2.9E1,2E0],"tree_param":{"num_deleted":"0","num_feature":"287","num_nodes":"13","size_leaf_vector":"1"}},{"base_weights":[-4.437961E2,-5.840055E3,3.3858223E4,-2.0633381E3,-2.3506326E4,2.6823143E4,1.6070919E5,-8.458061E2,8.001654E2,-2.7847725E3,-1.3540288E3,9.842026E2,4.3931743E3,1.6703665E3,1.8616957E4],"categories":[],"categories_nodes":[],"categories_segments":[],"categories_sizes":[],"default_left":[0,0,0,0,0,0,0,0,0,0,0,0,0,0,0],"id":17,"left_children":[1,3,5,7,9,11,13,-1,-1,-1,-1,-1,-1,-1,-1],"loss_changes":[1.6068167E11,4.9991877E10,1.0099329E11,3.9908266E10,5.3341143E9,3.239673E10,1.88889E10,0E0,0E0,0E0,0E0,0E0,0E0,0E0,0E0],"parents":[2147483647,0,0,1,1,2,2,3,3,4,4,5,5,6,6],"right_children":[2,4,6,8,10,12,14,-1,-1,-1,-1,-1,-1,-1,-1],"split_conditions":[1.6503069E0,1E0,2.8461676E0,1.6250324E-2,1E0,8.7099934E-1,1.3747946E0,-8.458061E2,8.001654E2,-2.7847725E3,-1.3540288E3,9.842026E2,4.3931743E3,1.6703665E3,1.8616957E4],"split_indices":[25,40,13,15,211,15,3,0,0,0,0,0,0,0,0],"split_type":[0,0,0,0,0,0,0,0,0,0,0,0,0,0,0],"sum_hessian":[8.66E2,7.49E2,1.17E2,6.18E2,1.31E2,1.12E2,5E0,3.78E2,2.4E2,9E1,4.1E1,5.7E1,5.5E1,1E0,4E0],"tree_param":{"num_deleted":"0","num_feature":"287","num_nodes":"15","size_leaf_vector":"1"}},{"base_weights":[2.1596726E3,-5.125539E2,9.271521E4,-2.185379E3,6.2393754E4,5.7912164E4,1.7393558E5,-1.0536969E3,7.199703E2,4.0397654E3,9.583723E3,6.7790034E3,3.922668E2,2.7199172E3,1.9385846E4],"categories":[],"categories_nodes":[],"categories_segments":[],"categories_sizes":[],"default_left":[0,0,0,0,0,0,0,0,0,0,0,0,0,0,0],"id":18,"left_children":[1,3,5,7,9,11,13,-1,-1,-1,-1,-1,-1,-1,-1],"loss_changes":[2.1105834E11,8.937245E10,6.0594946E10,6.4896414E10,1.2312166E10,9.866801E9,1.5191065E10,0E0,0E0,0E0,0E0,0E0,0E0,0E0,0E0],"parents":[2147483647,0,0,1,1,2,2,3,3,4,4,5,5,6,6],"right_children":[2,4,6,8,10,12,14,-1,-1,-1,-1,-1,-1,-1,-1],"split_conditions":[1.9896488E0,2.1521711E0,2.143103E0,-1.5375368E-1,1E0,1E0,9.1444963E-1,-1.0536969E3,7.199703E2,4.0397654E3,9.583723E3,6.7790034E3,3.922668E2,2.7199172E3,1.9385846E4],"split_indices":[11,15,22,11,223,184,1,0,0,0,0,0,0,0,0],"split_type":[0,0,0,0,0,0,0,0,0,0,0,0,0,0,0],"sum_hessian":[8.71E2,8.47E2,2.4E1,8.26E2,2.1E1,1.8E1,6E0,4.37E2,3.89E2,1.4E1,7E0,1.5E1,3E0,1E0,5E0],"tree_param":{"num_deleted":"0","num_feature":"287","num_nodes":"15","size_leaf_vector":"1"}},{"base_weights":[5.0585364E2,-3.3346907E3,3.774841E4,-1.1555962E4,5.185653E3,4.209863E4,-9.229026E3,-3.1584407E3,-8.42922E2,3.2096542E2,6.315472E3,1.8371387E3,8.1822563E3],"categories":[],"categories_nodes":[],"categories_segments":[],"categories_sizes":[],"default_left":[0,0,0,0,0,0,0,0,0,0,0,0,0],"id":19,"left_children":[1,3,5,7,9,11,-1,-1,-1,-1,-1,-1,-1],"loss_changes":[1.2699498E11,5.644861E10,5.083812E10,2.5409524E10,4.515783E10,7.484249E10,0E0,0E0,0E0,0E0,0E0,0E0,0E0],"parents":[2147483647,0,0,1,1,2,2,3,3,4,4,5,5],"right_children":[2,4,6,8,10,12,-1,-1,-1,-1,-1,-1,-1],"split_conditions":[1.4746623E0,3.9413288E-1,1E0,1E0,2.1521711E0,6.178109E-1,-9.229026E3,-3.1584407E3,-8.42922E2,3.2096542E2,6.315472E3,1.8371387E3,8.1822563E3],"split_indices":[8,6,49,217,15,15,0,0,0,0,0,0,0],"split_type":[0,0,0,0,0,0,0,0,0,0,0,0,0],"sum_hessian":[8.86E2,8.04E2,8.2E1,4.09E2,3.95E2,8E1,2E0,5.4E1,3.55E2,3.83E2,1.2E1,5.1E1,2.9E1],"tree_param":{"num_deleted":"0","num_feature":"287","num_nodes":"13","size_leaf_vector":"1"}},{"base_weights":[1.9597775E2,-2.9411523E3,3.877507E4,-1.021464E4,4.756852E3,7.509156E4,1.3913599E4,-1.15605E3,2.0784246E3,2.4699388E2,3.6343357E3,5.4293364E3,1.2675881E4,2.736391E3,-1.1224535E3],"categories":[],"categories_nodes":[],"categories_segments":[],"categories_sizes":[],"default_left":[0,0,0,0,0,0,0,0,0,0,0,0,0,0,0],"id":20,"left_children":[1,3,5,7,9,11,13,-1,-1,-1,-1,-1,-1,-1,-1],"loss_changes":[1.0782863E11,4.618545E10,5.9448263E10,1.7929634E10,2.8876706E10,2.2131671E10,1.4169893E10,0E0,0E0,0E0,0E0,0E0,0E0,0E0,0E0],"parents":[2147483647,0,0,1,1,2,2,3,3,4,4,5,5,6,6],"right_children":[2,4,6,8,10,12,14,-1,-1,-1,-1,-1,-1,-1,-1],"split_conditions":[1.5791656E0,-2.6663727E-1,1E0,1E0,1.2260287E0,2.09811E0,1E0,-1.15605E3,2.0784246E3,2.4699388E2,3.6343357E3,5.4293364E3,1.2675881E4,2.736391E3,-1.1224535E3],"split_indices":[15,28,192,69,24,3,169,0,0,0,0,0,0,0,0],"split_type":[0,0,0,0,0,0,0,0,0,0,0,0,0,0,0],"sum_hessian":[8.89E2,8.23E2,6.6E1,4.23E2,4E2,2.6E1,4E1,4.06E2,1.7E1,3.74E2,2.6E1,2E1,6E0,2.6E1,1.4E1],"tree_param":{"num_deleted":"0","num_feature":"287","num_nodes":"15","size_leaf_vector":"1"}},{"base_weights":[1.260238E3,1.3750587E2,1.12270695E5,-6.914785E3,1.1213475E4,1.7409973E4,1.5679939E4,-5.0554062E2,-2.522153E3,6.49342E2,3.280577E3,-3.6474426E2,4.029111E3],"categories":[],"categories_nodes":[],"categories_segments":[],"categories_sizes":[],"default_left":[0,0,0,0,0,0,0,0,0,0,0,0,0],"id":21,"left_children":[1,3,5,7,9,11,-1,-1,-1,-1,-1,-1,-1],"loss_changes":[1.1203145E11,6.96744E10,3.528635E10,1.8423847E10,3.5152114E10,2.0742298E9,0E0,0E0,0E0,0E0,0E0,0E0,0E0],"parents":[2147483647,0,0,1,1,2,2,3,3,4,4,5,5],"right_children":[2,4,6,8,10,12,-1,-1,-1,-1,-1,-1,-1],"split_conditions":[2.8369987E0,6.5147924E-1,2.143103E0,1E0,1.3620547E0,1.2431015E0,1.5679939E4,-5.0554062E2,-2.522153E3,6.49342E2,3.280577E3,-3.6474426E2,4.029111E3],"split_indices":[12,3,22,216,12,27,0,0,0,0,0,0,0],"split_type":[0,0,0,0,0,0,0,0,0,0,0,0,0],"sum_hessian":[8.98E2,8.9E2,8E0,5.44E2,3.46E2,3E0,5E0,4.95E2,4.9E1,2.85E2,6.1E1,2E0,1E0],"tree_param":{"num_deleted":"0","num_feature":"287","num_nodes":"13","size_leaf_vector":"1"}},{"base_weights":[6.085412E2,-8.278585E3,9.556681E3,-2.779641E4,-5.753318E3,5.5083013E3,3.6278836E4,-3.0580625E3,-2.7461044E2,-9.272485E2,4.6820956E2,-2.859247E0,1.8527743E3,4.0642473E3,-1.0186062E4],"categories":[],"categories_nodes":[],"categories_segments":[],"categories_sizes":[],"default_left":[0,0,0,0,0,0,0,0,0,0,0,0,0,0,0],"id":22,"left_children":[1,3,5,7,9,11,13,-1,-1,-1,-1,-1,-1,-1,-1],"loss_changes":[6.8151013E10,2.10338E10,4.599363E10,3.33355E9,1.407197E10,2.6816987E10,3.7896135E10,0E0,0E0,0E0,0E0,0E0,0E0,0E0,0E0],"parents":[2147483647,0,0,1,1,2,2,3,3,4,4,5,5,6,6],"right_children":[2,4,6,8,10,12,14,-1,-1,-1,-1,-1,-1,-1,-1],"split_conditions":[6.004949E-1,-1.2304223E0,1E0,1.5276563E0,1E0,1E0,1E0,-3.0580625E3,-2.7461044E2,-9.272485E2,4.6820956E2,-2.859247E0,1.8527743E3,4.0642473E3,-1.0186062E4],"split_indices":[23,26,190,22,195,195,49,0,0,0,0,0,0,0,0],"split_type":[0,0,0,0,0,0,0,0,0,0,0,0,0,0,0],"sum_hessian":[8.55E2,4.29E2,4.26E2,4.8E1,3.81E2,3.71E2,5.5E1,4.3E1,5E0,2.85E2,9.6E1,2.61E2,1.1E2,5.4E1,1E0],"tree_param":{"num_deleted":"0","num_feature":"287","num_nodes":"15","size_leaf_vector":"1"}},{"base_weights":[5.577768E2,-3.0824373E3,1.708224E4,-9.665947E3,2.3895823E3,1.1039888E4,6.1659836E4,-2.446371E3,-7.555077E2,-3.0835617E-1,1.6218431E3,1.2505815E3,-6.1538687E3,1.8701503E3,8.004818E3],"categories":[],"categories_nodes":[],"categories_segments":[],"categories_sizes":[],"default_left":[0,0,0,0,0,0,0,0,0,0,0,0,0,0,0],"id":23,"left_children":[1,3,5,7,9,11,13,-1,-1,-1,-1,-1,-1,-1,-1],"loss_changes":[5.364861E10,2.6357445E10,4.268521E10,1.0185583E10,1.3235176E10,1.5984071E10,1.3511696E10,0E0,0E0,0E0,0E0,0E0,0E0,0E0,0E0],"parents":[2147483647,0,0,1,1,2,2,3,3,4,4,5,5,6,6],"right_children":[2,4,6,8,10,12,14,-1,-1,-1,-1,-1,-1,-1,-1],"split_conditions":[1.9224308E-1,1.0341176E-1,1.6661004E0,-1.2249442E0,1E0,4.1118226E0,3.303563E-1,-2.446371E3,-7.555077E2,-3.0835617E-1,1.6218431E3,1.2505815E3,-6.1538687E3,1.8701503E3,8.004818E3],"split_indices":[2,6,27,15,278,28,15,0,0,0,0,0,0,0,0],"split_type":[0,0,0,0,0,0,0,0,0,0,0,0,0,0,0],"sum_hessian":[8.9E2,7.3E2,1.6E2,3.31E2,3.99E2,1.42E2,1.8E1,4E1,2.91E2,3.41E2,5.8E1,1.4E2,2E0,6E0,1.2E1],"tree_param":{"num_deleted":"0","num_feature":"287","num_nodes":"15","size_leaf_vector":"1"}},{"base_weights":[-5.7839545E2,-2.8810974E3,3.3428375E4,-1.657314E4,-2.4687622E2,2.245155E4,1.1933051E5,-2.94145E3,-1.1205643E3,-2.1906975E2,1.3617361E3,2.595218E3,-4.104236E3,3.2796843E3,1.3007787E4],"categories":[],"categories_nodes":[],"categories_segments":[],"categories_sizes":[],"default_left":[0,0,0,0,0,0,0,0,0,0,0,0,0,0,0],"id":24,"left_children":[1,3,5,7,9,11,13,-1,-1,-1,-1,-1,-1,-1,-1],"loss_changes":[6.791056E10,2.9283017E10,4.9182134E10,8.699695E9,1.840946E10,1.2178569E10,1.3139067E9,0E0,0E0,0E0,0E0,0E0,0E0,0E0,0E0],"parents":[2147483647,0,0,1,1,2,2,3,3,4,4,5,5,6,6],"right_children":[2,4,6,8,10,12,14,-1,-1,-1,-1,-1,-1,-1,-1],"split_conditions":[1.6588963E0,-8.1957656E-1,1E0,-8.8228315E-1,1.034391E0,3.49943E0,-7.6583093E-1,-2.94145E3,-1.1205643E3,-2.1906975E2,1.3617361E3,2.595218E3,-4.104236E3,3.2796843E3,1.3007787E4],"split_indices":[8,11,78,15,7,12,1,0,0,0,0,0,0,0,0],"split_type":[0,0,0,0,0,0,0,0,0,0,0,0,0,0,0],"sum_hessian":[8.65E2,8.11E2,5.4E1,1.3E2,6.81E2,4.9E1,5E0,3.7E1,9.3E1,5.98E2,8.3E1,4.7E1,2E0,1E0,4E0],"tree_param":{"num_deleted":"0","num_feature":"287","num_nodes":"15","size_leaf_vector":"1"}},{"base_weights":[-6.7256354E2,-7.783307E3,6.0612725E3,-1.4396821E4,-2.4205876E3,1.5653585E4,3.6560443E2,-2.3823398E3,-9.897446E2,-8.36976E2,2.8867764E2,1.2666053E3,5.714234E3,-3.105159E2,1.3943151E3],"categories":[],"categories_nodes":[],"categories_segments":[],"categories_sizes":[],"default_left":[0,0,0,0,0,0,0,0,0,0,0,0,0,0,0],"id":25,"left_children":[1,3,5,7,9,11,13,-1,-1,-1,-1,-1,-1,-1,-1],"loss_changes":[4.20402E10,1.5109313E10,2.4634495E10,7.8652293E9,7.5072993E9,2.0099645E10,1.3426638E10,0E0,0E0,0E0,0E0,0E0,0E0,0E0,0E0],"parents":[2147483647,0,0,1,1,2,2,3,3,4,4,5,5,6,6],"right_children":[2,4,6,8,10,12,14,-1,-1,-1,-1,-1,-1,-1,-1],"split_conditions":[6.004949E-1,-4.2957696E-1,1E0,-8.368886E-1,-4.049633E-1,2.143103E0,1.1939338E0,-2.3823398E3,-9.897446E2,-8.36976E2,2.8867764E2,1.2666053E3,5.714234E3,-3.105159E2,1.3943151E3],"split_indices":[23,6,192,5,8,22,13,0,0,0,0,0,0,0,0],"split_type":[0,0,0,0,0,0,0,0,0,0,0,0,0,0,0],"sum_hessian":[8.76E2,4.26E2,4.5E2,1.9E2,2.36E2,1.67E2,2.83E2,6E1,1.3E2,1.11E2,1.25E2,1.57E2,1E1,2.26E2,5.7E1],"tree_param":{"num_deleted":"0","num_feature":"287","num_nodes":"15","size_leaf_vector":"1"}},{"base_weights":[5.4591284E2,-6.679556E3,6.818251E3,-1.5076149E4,-3.736662E3,1.5221879E3,1.830681E4,-2.6531707E3,-1.2203358E3,2.7553357E2,-7.58436E2,3.3251427E1,3.1831155E3,-9.4495625E3,1.9736454E3],"categories":[],"categories_nodes":[],"categories_segments":[],"categories_sizes":[],"default_left":[0,0,0,0,0,0,0,0,0,0,0,0,0,0,0],"id":26,"left_children":[1,3,5,7,9,11,13,-1,-1,-1,-1,-1,-1,-1,-1],"loss_changes":[3.920253E10,9.877199E9,2.8142973E10,3.0988063E9,7.4896906E9,1.1455789E10,2.5410007E10,0E0,0E0,0E0,0E0,0E0,0E0,0E0,0E0],"parents":[2147483647,0,0,1,1,2,2,3,3,4,4,5,5,6,6],"right_children":[2,4,6,8,10,12,14,-1,-1,-1,-1,-1,-1,-1,-1],"split_conditions":[6.004949E-1,-3.5005832E-1,8.315923E-1,-1.2304223E0,1E0,1E0,1E0,-2.6531707E3,-1.2203358E3,2.7553357E2,-7.58436E2,3.3251427E1,3.1831155E3,-9.4495625E3,1.9736454E3],"split_indices":[23,2,12,26,247,50,99,0,0,0,0,0,0,0,0],"split_type":[0,0,0,0,0,0,0,0,0,0,0,0,0,0,0],"sum_hessian":[8.63E2,4.01E2,4.62E2,1.03E2,2.98E2,3.17E2,1.45E2,1.9E1,8.4E1,1.11E2,1.87E2,3.06E2,1.1E1,1E0,1.44E2],"tree_param":{"num_deleted":"0","num_feature":"287","num_nodes":"15","size_leaf_vector":"1"}},{"base_weights":[9.2323395E2,-3.8295126E2,5.3959887E4,-3.1063647E3,1.2035486E4,2.1352322E4,1.207829E4,-1.2656454E3,1.9397916E0,6.630083E2,3.2800989E3,4.9239663E3,-3.0404999E1],"categories":[],"categories_nodes":[],"categories_segments":[],"categories_sizes":[],"default_left":[0,0,0,0,0,0,0,0,0,0,0,0,0],"id":27,"left_children":[1,3,5,7,9,11,-1,-1,-1,-1,-1,-1,-1],"loss_changes":[6.3407915E10,3.0272948E10,4.535759E10,2.191111E10,1.785412E10,9.67799E9,0E0,0E0,0E0,0E0,0E0,0E0,0E0],"parents":[2147483647,0,0,1,1,2,2,3,3,4,4,5,5],"right_children":[2,4,6,8,10,12,-1,-1,-1,-1,-1,-1,-1],"split_conditions":[2.414878E0,9.0002763E-1,1.4287158E0,-3.2971326E-1,1.150356E0,1E0,1.207829E4,-1.2656454E3,1.9397916E0,6.630083E2,3.2800989E3,4.9239663E3,-3.0404999E1],"split_indices":[15,8,11,2,5,192,0,0,0,0,0,0,0],"split_type":[0,0,0,0,0,0,0,0,0,0,0,0,0],"sum_hessian":[9.14E2,8.93E2,2.1E1,7.33E2,1.6E2,1.5E1,6E0,1.8E2,5.53E2,1.28E2,3.2E1,6E0,9E0],"tree_param":{"num_deleted":"0","num_feature":"287","num_nodes":"13","size_leaf_vector":"1"}},{"base_weights":[4.615215E2,-1.7307607E3,3.0463066E4,-2.1464465E4,-3.6586212E2,3.416445E4,-9.580999E3,-2.4022354E3,-8.5830246E1,-1.7201534E2,1.9928334E3,2.3132998E3,1.0297727E4],"categories":[],"categories_nodes":[],"categories_segments":[],"categories_sizes":[],"default_left":[0,0,0,0,0,0,0,0,0,0,0,0,0],"id":28,"left_children":[1,3,5,7,9,11,-1,-1,-1,-1,-1,-1,-1],"loss_changes":[5.891854E10,2.248246E10,3.1783784E10,2.8256297E9,2.1526964E10,4.3164148E10,0E0,0E0,0E0,0E0,0E0,0E0,0E0],"parents":[2147483647,0,0,1,1,2,2,3,3,4,4,5,5],"right_children":[2,4,6,8,10,12,-1,-1,-1,-1,-1,-1,-1],"split_conditions":[1.6588963E0,-5.171998E-1,1E0,4.4743082E-1,1.4763672E0,2.1629453E0,-9.580999E3,-2.4022354E3,-8.5830246E1,-1.7201534E2,1.9928334E3,2.3132998E3,1.0297727E4],"split_indices":[8,4,49,31,15,11,0,0,0,0,0,0,0],"split_type":[0,0,0,0,0,0,0,0,0,0,0,0,0],"sum_hessian":[8.94E2,8.34E2,6E1,5.3E1,7.81E2,5.9E1,1E0,4.7E1,6E0,7.33E2,4.8E1,5.2E1,7E0],"tree_param":{"num_deleted":"0","num_feature":"287","num_nodes":"13","size_leaf_vector":"1"}},{"base_weights":[-5.9529895E2,-2.9349202E3,1.1650715E4,-8.666128E3,2.0487723E2,-1.7914734E4,1.6929963E4,-2.4127317E3,-7.363301E2,-1.4647717E3,1.4032819E2,-1.0099295E3,-9.101948E3,1.1217451E3,4.8995034E3],"categories":[],"categories_nodes":[],"categories_segments":[],"categories_sizes":[],"default_left":[0,0,0,0,0,0,0,0,0,0,0,0,0,0,0],"id":29,"left_children":[1,3,5,7,9,11,13,-1,-1,-1,-1,-1,-1,-1,-1],"loss_changes":[2.5361707E10,1.3371935E10,2.246714E10,5.1200225E9,8.582075E9,1.1650374E10,2.1614223E10,0E0,0E0,0E0,0E0,0E0,0E0,0E0,0E0],"parents":[2147483647,0,0,1,1,2,2,3,3,4,4,5,5,6,6],"right_children":[2,4,6,8,10,12,14,-1,-1,-1,-1,-1,-1,-1,-1],"split_conditions":[2.3744322E-1,-4.0252703E-1,1E0,-1.4229262E0,-9.7463125E-1,2.4593732E0,1E0,-2.4127317E3,-7.363301E2,-1.4647717E3,1.4032819E2,-1.0099295E3,-9.101948E3,1.1217451E3,4.8995034E3],"split_indices":[2,1,90,15,11,11,278,0,0,0,0,0,0,0,0],"split_type":[0,0,0,0,0,0,0,0,0,0,0,0,0,0,0],"sum_hessian":[8.83E2,7.42E2,1.41E2,2.62E2,4.8E2,2.1E1,1.2E2,1.9E1,2.43E2,3.5E1,4.45E2,2E1,1E0,1.03E2,1.7E1],"tree_param":{"num_deleted":"0","num_feature":"287","num_nodes":"15","size_leaf_vector":"1"}},{"base_weights":[-3.0981863E2,-2.8838396E3,1.1234752E4,-8.840174E3,1.4393105E3,1.3783377E4,-4.6075867E4,-2.5864575E3,-7.130324E2,-1.1353593E2,1.02162225E3,1.116267E3,7.6130283E3,7.1495316E1,-8.134772E3],"categories":[],"categories_nodes":[],"categories_segments":[],"categories_sizes":[],"default_left":[0,0,0,0,0,0,0,0,0,0,0,0,0,0,0],"id":30,"left_children":[1,3,5,7,9,11,13,-1,-1,-1,-1,-1,-1,-1,-1],"loss_changes":[2.5915007E10,1.8372567E10,2.3859143E10,8.5483295E9,9.367027E9,2.4149318E10,1.1610952E10,0E0,0E0,0E0,0E0,0E0,0E0,0E0,0E0],"parents":[2147483647,0,0,1,1,2,2,3,3,4,4,5,5,6,6],"right_children":[2,4,6,8,10,12,14,-1,-1,-1,-1,-1,-1,-1,-1],"split_conditions":[7.8533405E-1,-4.86114E-1,3.49943E0,-5.171998E-1,2.1803963E-1,2.8369987E0,2.1521711E0,-2.5864575E3,-7.130324E2,-1.1353593E2,1.02162225E3,1.116267E3,7.6130283E3,7.1495316E1,-8.134772E3],"split_indices":[15,8,12,4,15,12,15,0,0,0,0,0,0,0,0],"split_type":[0,0,0,0,0,0,0,0,0,0,0,0,0,0,0],"sum_hessian":[8.7E2,7.12E2,1.58E2,2.99E2,4.13E2,1.52E2,6E0,2.6E1,2.73E2,3.2E2,9.3E1,1.47E2,5E0,3E0,3E0],"tree_param":{"num_deleted":"0","num_feature":"287","num_nodes":"15","size_leaf_vector":"1"}},{"base_weights":[3.3986588E0,-1.5859147E3,2.2226791E4,-3.1917095E3,1.1729329E4,3.0644268E4,-5.723497E4,-1.9463275E3,-2.0803416E2,4.9546045E2,2.71026E3,1.8306797E3,7.2299854E3,-2.1823914E3,-8.537139E3],"categories":[],"categories_nodes":[],"categories_segments":[],"categories_sizes":[],"default_left":[0,0,0,0,0,0,0,0,0,0,0,0,0,0,0],"id":31,"left_children":[1,3,5,7,9,11,13,-1,-1,-1,-1,-1,-1,-1,-1],"loss_changes":[3.1222751E10,1.7677216E10,4.1217106E10,1.3287193E10,9.135038E9,2.642835E10,4.114905E9,0E0,0E0,0E0,0E0,0E0,0E0,0E0,0E0],"parents":[2147483647,0,0,1,1,2,2,3,3,4,4,5,5,6,6],"right_children":[2,4,6,8,10,12,14,-1,-1,-1,-1,-1,-1,-1,-1],"split_conditions":[1.5791656E0,1.1426564E0,3.49943E0,-5.171998E-1,7.0921385E-1,1.3905185E0,-6.360783E-1,-1.9463275E3,-2.0803416E2,4.9546045E2,2.71026E3,1.8306797E3,7.2299854E3,-2.1823914E3,-8.537139E3],"split_indices":[15,24,12,4,8,12,0,0,0,0,0,0,0,0,0],"split_type":[0,0,0,0,0,0,0,0,0,0,0,0,0,0,0],"sum_hessian":[8.82E2,8.24E2,5.8E1,7.36E2,8.8E1,5.3E1,5E0,4.6E1,6.9E2,6.2E1,2.6E1,4.2E1,1.1E1,3E0,2E0],"tree_param":{"num_deleted":"0","num_feature":"287","num_nodes":"15","size_leaf_vector":"1"}},{"base_weights":[-3.9815488E2,-1.5351212E3,2.4994611E4,-1.9027934E4,-2.6257565E2,1.5345045E4,6.4157744E3,-2.0601042E3,6.572754E2,-1.7924164E3,7.539303E1,1.0976835E3,3.1716455E3],"categories":[],"categories_nodes":[],"categories_segments":[],"categories_sizes":[],"default_left":[0,0,0,0,0,0,0,0,0,0,0,0,0],"id":32,"left_children":[1,3,5,7,9,11,-1,-1,-1,-1,-1,-1,-1],"loss_changes":[2.4924928E10,1.8382094E10,1.2998062E10,2.3906775E9,1.3855362E10,1.8687805E9,0E0,0E0,0E0,0E0,0E0,0E0,0E0],"parents":[2147483647,0,0,1,1,2,2,3,3,4,4,5,5],"right_children":[2,4,6,8,10,12,-1,-1,-1,-1,-1,-1,-1],"split_conditions":[2.7797582E0,-5.171998E-1,1.6686382E0,6.8410915E-1,-1.3707852E0,1.321134E0,6.4157744E3,-2.0601042E3,6.572754E2,-1.7924164E3,7.539303E1,1.0976835E3,3.1716455E3],"split_indices":[31,4,15,24,26,8,0,0,0,0,0,0,0],"split_type":[0,0,0,0,0,0,0,0,0,0,0,0,0],"sum_hessian":[8.61E2,8.25E2,3.6E1,5.5E1,7.7E2,3E1,6E0,5.2E1,3E0,4.1E1,7.29E2,2.5E1,5E0],"tree_param":{"num_deleted":"0","num_feature":"287","num_nodes":"13","size_leaf_vector":"1"}},{"base_weights":[7.955551E2,-4.6184058E2,4.3867258E4,-2.4507874E3,1.0383635E4,2.8996041E4,8.6126766E4,-7.600674E2,3.0898472E1,8.456998E2,5.801412E3,3.7240632E3,-1.329248E3,2.358778E3,9.391701E3],"categories":[],"categories_nodes":[],"categories_segments":[],"categories_sizes":[],"default_left":[0,0,0,0,0,0,0,0,0,0,0,0,0,0,0],"id":33,"left_children":[1,3,5,7,9,11,13,-1,-1,-1,-1,-1,-1,-1,-1],"loss_changes":[4.773361E10,1.8511856E10,1.3213925E10,1.0306421E10,1.1714335E10,7.4680504E9,7.078707E8,0E0,0E0,0E0,0E0,0E0,0E0,0E0,0E0],"parents":[2147483647,0,0,1,1,2,2,3,3,4,4,5,5,6,6],"right_children":[2,4,6,8,10,12,14,-1,-1,-1,-1,-1,-1,-1,-1],"split_conditions":[2.1102903E0,2.3744322E-1,1.4287158E0,-4.0252703E-1,1.1693892E0,9.598626E-1,-6.360783E-1,-7.600674E2,3.0898472E1,8.456998E2,5.801412E3,3.7240632E3,-1.329248E3,2.358778E3,9.391701E3],"split_indices":[15,2,11,1,6,1,0,0,0,0,0,0,0,0,0],"split_type":[0,0,0,0,0,0,0,0,0,0,0,0,0,0,0],"sum_hessian":[8.8E2,8.56E2,2.4E1,7.24E2,1.32E2,1.9E1,5E0,2.52E2,4.72E2,1.28E2,4E0,1.6E1,3E0,1E0,4E0],"tree_param":{"num_deleted":"0","num_feature":"287","num_nodes":"15","size_leaf_vector":"1"}},{"base_weights":[2.1566795E2,-8.252937E2,2.7945303E4,-1.6077573E3,2.3312346E4,-1.0210637E4,4.660102E4,-4.053637E2,5.665191E2,8.8560333E2,4.2220405E3,-1.7811816E3,7.544383E2,5.354316E3,-4.6120933E3],"categories":[],"categories_nodes":[],"categories_segments":[],"categories_sizes":[],"default_left":[0,0,0,0,0,0,0,0,0,0,0,0,0,0,0],"id":34,"left_children":[1,3,5,7,9,11,13,-1,-1,-1,-1,-1,-1,-1,-1],"loss_changes":[2.4731918E10,1.5637999E10,2.2542442E10,1.4271757E10,6.7329567E9,1.6189292E9,1.598693E10,0E0,0E0,0E0,0E0,0E0,0E0,0E0,0E0],"parents":[2147483647,0,0,1,1,2,2,3,3,4,4,5,5,6,6],"right_children":[2,4,6,8,10,12,14,-1,-1,-1,-1,-1,-1,-1,-1],"split_conditions":[1.9571799E0,1E0,-9.968908E-3,5.088395E-1,1.2275854E0,1.3900228E0,4.6786823E0,-4.053637E2,5.665191E2,8.8560333E2,4.2220405E3,-1.7811816E3,7.544383E2,5.354316E3,-4.6120933E3],"split_indices":[8,69,28,27,19,20,2,0,0,0,0,0,0,0,0],"split_type":[0,0,0,0,0,0,0,0,0,0,0,0,0,0,0],"sum_hessian":[8.55E2,8.25E2,3E1,8E2,2.5E1,1E1,2E1,5.99E2,2.01E2,1.5E1,1E1,7E0,3E0,1.9E1,1E0],"tree_param":{"num_deleted":"0","num_feature":"287","num_nodes":"15","size_leaf_vector":"1"}},{"base_weights":[-9.550256E2,-1.7647244E4,1.0562433E2,-2.0400957E4,-6.538645E3,-7.068383E1,7.3573315E3,-1.7727626E3,-3.6638103E3,2.6043204E2,-8.62767E2,2.4010336E1,-8.623877E3],"categories":[],"categories_nodes":[],"categories_segments":[],"categories_sizes":[],"default_left":[0,0,0,0,0,0,0,0,0,0,0,0,0],"id":35,"left_children":[1,3,5,7,9,11,-1,-1,-1,-1,-1,-1,-1],"loss_changes":[1.5705845E10,1.48787E9,1.0820916E10,1.1736003E9,2.5166787E8,2.235517E10,0E0,0E0,0E0,0E0,0E0,0E0,0E0],"parents":[2147483647,0,0,1,1,2,2,3,3,4,4,5,5],"right_children":[2,4,6,8,10,12,-1,-1,-1,-1,-1,-1,-1],"split_conditions":[-1.3707852E0,2.530153E-1,3.3205261E0,1E0,-1.2048333E0,3.2029529E0,7.3573315E3,-1.7727626E3,-3.6638103E3,2.6043204E2,-8.62767E2,2.4010336E1,-8.623877E3],"split_indices":[26,8,13,212,6,8,0,0,0,0,0,0,0],"split_type":[0,0,0,0,0,0,0,0,0,0,0,0,0],"sum_hessian":[8.86E2,5.2E1,8.34E2,4.1E1,1.1E1,8.33E2,1E0,3.7E1,4E0,2E0,9E0,8.31E2,2E0],"tree_param":{"num_deleted":"0","num_feature":"287","num_nodes":"13","size_leaf_vector":"1"}},{"base_weights":[-6.091218E2,-9.167835E2,8.932858E3,-2.2015027E3,1.261864E4,-4.4937173E2,5.442852E2,1.4953057E3,-8.123133E3],"categories":[],"categories_nodes":[],"categories_segments":[],"categories_sizes":[],"default_left":[0,0,0,0,0,0,0,0,0],"id":36,"left_children":[1,3,-1,5,7,-1,-1,-1,-1],"loss_changes":[2.4348826E10,1.5243345E10,0E0,1.4042459E10,1.7865114E10,0E0,0E0,0E0,0E0],"parents":[2147483647,0,0,1,1,3,3,4,4],"right_children":[2,4,-1,6,8,-1,-1,-1,-1],"split_conditions":[3.3205261E0,1E0,8.932858E3,1.2806852E0,1.4801964E0,-4.4937173E2,5.442852E2,1.4953057E3,-8.123133E3],"split_indices":[13,286,0,4,2,0,0,0,0],"split_type":[0,0,0,0,0,0,0,0,0],"sum_hessian":[8.76E2,8.74E2,2E0,7.99E2,7.5E1,6.15E2,1.84E2,7.4E1,1E0],"tree_param":{"num_deleted":"0","num_feature":"287","num_nodes":"9","size_leaf_vector":"1"}},{"base_weights":[-2.0078482E2,-3.0153752E3,5.692046E3,-3.4490286E3,4.971282E3,6.247711E3,-7.7169766E3,-2.4778409E2,-1.4586301E3,4.686494E2,3.6468208E3],"categories":[],"categories_nodes":[],"categories_segments":[],"categories_sizes":[],"default_left":[0,0,0,0,0,0,0,0,0,0,0],"id":37,"left_children":[1,3,5,7,-1,9,-1,-1,-1,-1,-1],"loss_changes":[1.4828377E10,1.4005244E10,1.3788685E10,6.4645043E9,0E0,1.3417147E10,0E0,0E0,0E0,0E0,0E0],"parents":[2147483647,0,0,1,1,2,2,3,3,5,5],"right_children":[2,4,6,8,-1,10,-1,-1,-1,-1,-1],"split_conditions":[9.5718056E-2,4.7961764E0,1E0,1E0,4.971282E3,2.605522E0,-7.7169766E3,-2.4778409E2,-1.4586301E3,4.686494E2,3.6468208E3],"split_indices":[28,9,101,281,0,18,0,0,0,0,0],"split_type":[0,0,0,0,0,0,0,0,0,0,0],"sum_hessian":[8.92E2,6.04E2,2.88E2,6E2,4E0,2.87E2,1E0,5.53E2,4.7E1,2.74E2,1.3E1],"tree_param":{"num_deleted":"0","num_feature":"287","num_nodes":"11","size_leaf_vector":"1"}},{"base_weights":[6.7738983E2,2.7240094E2,8.970685E3,-1.0804492E3,1.6208558E4,-1.6919318E2,3.3938586E3,3.1547745E2,2.9553489E3],"categories":[],"categories_nodes":[],"categories_segments":[],"categories_sizes":[],"default_left":[0,0,0,0,0,0,0,0,0],"id":38,"left_children":[1,3,-1,5,7,-1,-1,-1,-1],"loss_changes":[3.1849015E10,1.9011197E10,0E0,1.7466622E10,1.192669E10,0E0,0E0,0E0,0E0],"parents":[2147483647,0,0,1,1,3,3,4,4],"right_children":[2,4,-1,6,8,-1,-1,-1,-1],"split_conditions":[3.2029529E0,1E0,8.970685E3,2.4186754E0,1.257462E-1,-1.6919318E2,3.3938586E3,3.1547745E2,2.9553489E3],"split_indices":[8,278,0,2,27,0,0,0,0],"split_type":[0,0,0,0,0,0,0,0,0],"sum_hessian":[8.83E2,8.8E2,3E0,8.12E2,6.8E1,7.99E2,1.3E1,3.5E1,3.3E1],"tree_param":{"num_deleted":"0","num_feature":"287","num_nodes":"9","size_leaf_vector":"1"}},{"base_weights":[1.5264792E2,-8.6206934E2,2.4962473E4,-1.645814E3,2.2743713E4,3.0430096E4,-4.713518E3,-1.0225167E3,1.4409113E1,2.9877192E3,-7.7796626E3,1.4510508E3,3.6072407E3,-9.2399164E2,8.9592346E2],"categories":[],"categories_nodes":[],"categories_segments":[],"categories_sizes":[],"default_left":[0,0,0,0,0,0,0,0,0,0,0,0,0,0,0],"id":39,"left_children":[1,3,5,7,9,11,13,-1,-1,-1,-1,-1,-1,-1,-1],"loss_changes":[2.1143308E10,1.4967662E10,5.4979195E9,1.2010044E10,2.0971606E10,1.9916227E9,4.5411242E8,0E0,0E0,0E0,0E0,0E0,0E0,0E0,0E0],"parents":[2147483647,0,0,1,1,2,2,3,3,4,4,5,5,6,6],"right_children":[2,4,6,8,10,12,14,-1,-1,-1,-1,-1,-1,-1,-1],"split_conditions":[1E0,1.08913E0,1E0,-8.0376786E-1,1.1834768E0,-1.3999412E0,2.1522164E0,-1.0225167E3,1.4409113E1,2.9877192E3,-7.7796626E3,1.4510508E3,3.6072407E3,-9.2399164E2,8.9592346E2],"split_indices":[69,2,155,5,5,5,23,0,0,0,0,0,0,0,0],"split_type":[0,0,0,0,0,0,0,0,0,0,0,0,0,0,0],"sum_hessian":[8.38E2,8.06E2,3.2E1,7.81E2,2.5E1,2.7E1,5E0,1.34E2,6.47E2,2.4E1,1E0,8E0,1.9E1,4E0,1E0],"tree_param":{"num_deleted":"0","num_feature":"287","num_nodes":"15","size_leaf_vector":"1"}},{"base_weights":[-2.9152466E2,-1.02019714E3,2.021818E4,-3.3623936E3,4.8201523E3,-6.5831846E3,3.2017963E4,-3.7586755E2,3.0915146E3,5.4534875E2,-7.3906797E3,2.830759E2,-2.141179E3,2.068036E3,5.173884E3],"categories":[],"categories_nodes":[],"categories_segments":[],"categories_sizes":[],"default_left":[0,0,0,0,0,0,0,0,0,0,0,0,0,0,0],"id":40,"left_children":[1,3,5,7,9,11,13,-1,-1,-1,-1,-1,-1,-1,-1],"loss_changes":[1.3067487E10,1.1561489E10,9.698289E9,8.307096E9,1.2469299E10,1.456568E9,3.6253594E9,0E0,0E0,0E0,0E0,0E0,0E0,0E0,0E0],"parents":[2147483647,0,0,1,1,2,2,3,3,4,4,5,5,6,6],"right_children":[2,4,6,8,10,12,14,-1,-1,-1,-1,-1,-1,-1,-1],"split_conditions":[1E0,1E0,-4.0252703E-1,1.8221539E0,5.4253607E0,1.1078101E0,6.3640046E-1,-3.7586755E2,3.0915146E3,5.4534875E2,-7.3906797E3,2.830759E2,-2.141179E3,2.068036E3,5.173884E3],"split_indices":[69,195,1,2,28,16,6,0,0,0,0,0,0,0,0],"split_type":[0,0,0,0,0,0,0,0,0,0,0,0,0,0,0],"sum_hessian":[8.72E2,8.43E2,2.9E1,6.02E2,2.41E2,9E0,2E1,5.96E2,6E0,2.4E2,1E0,6E0,3E0,1.4E1,6E0],"tree_param":{"num_deleted":"0","num_feature":"287","num_nodes":"15","size_leaf_vector":"1"}},{"base_weights":[7.626148E0,-6.489064E2,3.0900705E4,-3.1025576E3,5.3927285E3,1.4880377E4,6.9577484E4,-1.9989631E3,-2.3984329E2,1.4724278E2,1.288911E3,2.1328438E2,1.8163082E3,1.0658265E3,8.164272E3],"categories":[],"categories_nodes":[],"categories_segments":[],"categories_sizes":[],"default_left":[0,0,0,0,0,0,0,0,0,0,0,0,0,0,0],"id":41,"left_children":[1,3,5,7,9,11,13,-1,-1,-1,-1,-1,-1,-1,-1],"loss_changes":[1.7543969E10,1.2572716E10,1.0117724E10,7.1220915E9,7.181098E9,5.471104E8,2.684201E9,0E0,0E0,0E0,0E0,0E0,0E0,0E0,0E0],"parents":[2147483647,0,0,1,1,2,2,3,3,4,4,5,5,6,6],"right_children":[2,4,6,8,10,12,14,-1,-1,-1,-1,-1,-1,-1,-1],"split_conditions":[1.2677147E0,4.8725136E-2,9.873124E-1,-1.8967524E0,8.471181E-1,1E0,8.8513285E-2,-1.9989631E3,-2.3984329E2,1.4724278E2,1.288911E3,2.1328438E2,1.8163082E3,1.0658265E3,8.164272E3],"split_indices":[24,2,26,5,12,160,2,0,0,0,0,0,0,0,0],"split_type":[0,0,0,0,0,0,0,0,0,0,0,0,0,0,0],"sum_hessian":[8.63E2,8.46E2,1.7E1,6.02E2,2.44E2,1.3E1,4E0,2.3E1,5.79E2,1.61E2,8.3E1,3E0,1E1,1E0,3E0],"tree_param":{"num_deleted":"0","num_feature":"287","num_nodes":"15","size_leaf_vector":"1"}},{"base_weights":[9.8479996E1,4.1613376E2,-5.4557664E4,-6.858948E1,8.331753E3,-4.9070938E2,-6.574353E3,-7.848948E1,1.8400801E3],"categories":[],"categories_nodes":[],"categories_segments":[],"categories_sizes":[],"default_left":[0,0,0,0,0,0,0,0,0],"id":42,"left_children":[1,3,5,7,-1,-1,-1,-1,-1],"loss_changes":[1.5023237E10,3.4564153E10,2.454313E9,1.1339084E10,0E0,0E0,0E0,0E0,0E0],"parents":[2147483647,0,0,1,1,2,2,3,3],"right_children":[2,4,6,8,-1,-1,-1,-1,-1],"split_conditions":[3.49943E0,2.8369987E0,-8.807793E-2,8.640314E-1,8.331753E3,-4.9070938E2,-6.574353E3,-7.848948E1,1.8400801E3],"split_indices":[12,12,2,2,0,0,0,0,0],"split_type":[0,0,0,0,0,0,0,0,0],"sum_hessian":[8.63E2,8.59E2,4E0,8.55E2,4E0,1E0,3E0,8.24E2,3.1E1],"tree_param":{"num_deleted":"0","num_feature":"287","num_nodes":"9","size_leaf_vector":"1"}},{"base_weights":[-9.4048926E2,-1.5564916E3,4.7417188E4,-1.3372892E4,-7.0319006E2,5.893914E4,-3.3901165E3,-1.7901471E3,3.6799997E2,-4.6202472E2,1.5115025E2,-5.4568964E2,7.572027E3],"categories":[],"categories_nodes":[],"categories_segments":[],"categories_sizes":[],"default_left":[0,0,0,0,0,0,0,0,0,0,0,0,0],"id":43,"left_children":[1,3,5,7,9,11,-1,-1,-1,-1,-1,-1,-1],"loss_changes":[2.6049325E10,8.682101E9,1.2304509E10,4.544949E9,6.990421E9,1.1219579E10,0E0,0E0,0E0,0E0,0E0,0E0,0E0],"parents":[2147483647,0,0,1,1,2,2,3,3,4,4,5,5],"right_children":[2,4,6,8,10,12,-1,-1,-1,-1,-1,-1,-1],"split_conditions":[2.4593732E0,1E0,4.4566627E0,1.2806852E0,-3.8112345E-1,1.5009815E0,-3.3901165E3,-1.7901471E3,3.6799997E2,-4.6202472E2,1.5115025E2,-5.4568964E2,7.572027E3],"split_indices":[11,233,1,4,6,8,0,0,0,0,0,0,0],"split_type":[0,0,0,0,0,0,0,0,0,0,0,0,0],"sum_hessian":[8.71E2,8.61E2,1E1,5.7E1,8.04E2,9E0,1E0,4.5E1,1.2E1,2.9E2,5.14E2,2E0,7E0],"tree_param":{"num_deleted":"0","num_feature":"287","num_nodes":"13","size_leaf_vector":"1"}},{"base_weights":[-5.0143753E2,-3.5093093E3,4.8301055E3,-2.6669084E3,-2.3375963E4,3.1375144E3,2.896191E4,-3.676091E2,1.1087207E3,-1.2031716E3,-2.8998982E3,3.883657E2,-6.904057E3,1.5620953E3,5.1506406E3],"categories":[],"categories_nodes":[],"categories_segments":[],"categories_sizes":[],"default_left":[0,0,0,0,0,0,0,0,0,0,0,0,0,0,0],"id":44,"left_children":[1,3,5,7,9,11,13,-1,-1,-1,-1,-1,-1,-1,-1],"loss_changes":[1.3648058E10,9.041873E9,1.2448631E10,7.300216E9,1.05444864E9,1.577841E10,5.2107233E9,0E0,0E0,0E0,0E0,0E0,0E0,0E0,0E0],"parents":[2147483647,0,0,1,1,2,2,3,3,4,4,5,5,6,6],"right_children":[2,4,6,8,10,12,14,-1,-1,-1,-1,-1,-1,-1,-1],"split_conditions":[1.2275854E0,1E0,1E0,1.3639617E0,-5.700809E-1,3.764582E0,1.5930984E0,-3.676091E2,1.1087207E3,-1.2031716E3,-2.8998982E3,3.883657E2,-6.904057E3,1.5620953E3,5.1506406E3],"split_indices":[19,185,78,28,15,15,8,0,0,0,0,0,0,0,0],"split_type":[0,0,0,0,0,0,0,0,0,0,0,0,0,0,0],"sum_hessian":[8.49E2,5.43E2,3.06E2,5.22E2,2.1E1,2.87E2,1.9E1,4.87E2,3.5E1,8E0,1.3E1,2.85E2,2E0,1.3E1,6E0],"tree_param":{"num_deleted":"0","num_feature":"287","num_nodes":"15","size_leaf_vector":"1"}},{"base_weights":[-3.5175208E2,-3.4213784E3,4.8440825E3,-3.8406665E3,2.9652059E4,5.2959243E3,-4.5418926E3,-5.028679E2,3.8933408E2,3.6690898E3,-6.2904926E2,3.0702664E2,2.241668E3],"categories":[],"categories_nodes":[],"categories_segments":[],"categories_sizes":[],"default_left":[0,0,0,0,0,0,0,0,0,0,0,0,0],"id":45,"left_children":[1,3,5,7,9,11,-1,-1,-1,-1,-1,-1,-1],"loss_changes":[1.3956236E10,7.740896E9,7.6215905E9,5.0179036E9,2.0017613E9,1.2239074E10,0E0,0E0,0E0,0E0,0E0,0E0,0E0],"parents":[2147483647,0,0,1,1,2,2,3,3,4,4,5,5],"right_children":[2,4,6,8,10,12,-1,-1,-1,-1,-1,-1,-1],"split_conditions":[1.2275854E0,1E0,3.0927567E0,1E0,-4.8350178E-2,8.8334477E-1,-4.5418926E3,-5.028679E2,3.8933408E2,3.6690898E3,-6.2904926E2,3.0702664E2,2.241668E3],"split_indices":[19,62,26,193,29,12,0,0,0,0,0,0,0],"split_type":[0,0,0,0,0,0,0,0,0,0,0,0,0],"sum_hessian":[8.73E2,5.49E2,3.24E2,5.43E2,6E0,3.22E2,2E0,4.71E2,7.2E1,5E0,1E0,2.86E2,3.6E1],"tree_param":{"num_deleted":"0","num_feature":"287","num_nodes":"13","size_leaf_vector":"1"}},{"base_weights":[6.513659E2,-6.757639E1,2.9754629E4,-4.356618E3,3.1625818E3,-7.346424E3,4.8829902E4,-1.5822358E3,-3.210732E2,2.7346811E1,1.0373007E3,-2.2672698E3,1.3648024E3,-1.9371477E3,5.5566274E3],"categories":[],"categories_nodes":[],"categories_segments":[],"categories_sizes":[],"default_left":[0,0,0,0,0,0,0,0,0,0,0,0,0,0,0],"id":46,"left_children":[1,3,5,7,9,11,13,-1,-1,-1,-1,-1,-1,-1,-1],"loss_changes":[1.822644E10,1.1803774E10,1.5220689E10,4.7578655E9,1.0121387E10,2.8835704E9,7.5084227E9,0E0,0E0,0E0,0E0,0E0,0E0,0E0,0E0],"parents":[2147483647,0,0,1,1,2,2,3,3,4,4,5,5,6,6],"right_children":[2,4,6,8,10,12,14,-1,-1,-1,-1,-1,-1,-1,-1],"split_conditions":[2.2797172E0,-3.698711E-1,-1.9114657E-1,1E0,3.5510406E-1,-4.8911005E-1,-6.7184454E-1,-1.5822358E3,-3.210732E2,2.7346811E1,1.0373007E3,-2.2672698E3,1.3648024E3,-1.9371477E3,5.5566274E3],"split_indices":[15,8,28,233,15,34,6,0,0,0,0,0,0,0,0],"split_type":[0,0,0,0,0,0,0,0,0,0,0,0,0,0,0],"sum_hessian":[8.7E2,8.5E2,2E1,3.65E2,4.85E2,7E0,1.3E1,3.2E1,3.33E2,3.47E2,1.38E2,4E0,3E0,1E0,1.2E1],"tree_param":{"num_deleted":"0","num_feature":"287","num_nodes":"15","size_leaf_vector":"1"}},{"base_weights":[3.3786743E2,-3.8738098E3,4.216303E3,-1.4980681E4,-2.1239048E3,4.541182E3,-7.180186E3,-3.8652994E2,-2.0011747E3,-1.3440289E3,-9.926863E1,3.6606808E2,5.3281616E3],"categories":[],"categories_nodes":[],"categories_segments":[],"categories_sizes":[],"default_left":[0,0,0,0,0,0,0,0,0,0,0,0,0],"id":47,"left_children":[1,3,5,7,9,11,-1,-1,-1,-1,-1,-1,-1],"loss_changes":[1.4309212E10,8.131289E9,1.158777E10,3.1102157E9,4.646333E9,1.9331744E10,0E0,0E0,0E0,0E0,0E0,0E0,0E0],"parents":[2147483647,0,0,1,1,2,2,3,3,4,4,5,5],"right_children":[2,4,6,8,10,12,-1,-1,-1,-1,-1,-1,-1],"split_conditions":[3.9413288E-1,1E0,5.4253607E0,-6.144386E-1,-1.3707852E0,2.575649E0,-7.180186E3,-3.8652994E2,-2.0011747E3,-1.3440289E3,-9.926863E1,3.6606808E2,5.3281616E3],"split_indices":[6,285,28,35,26,12,0,0,0,0,0,0,0],"split_type":[0,0,0,0,0,0,0,0,0,0,0,0,0],"sum_hessian":[8.74E2,4.19E2,4.55E2,5.6E1,3.63E2,4.54E2,1E0,1.8E1,3.8E1,3.2E1,3.31E2,4.47E2,7E0],"tree_param":{"num_deleted":"0","num_feature":"287","num_nodes":"13","size_leaf_vector":"1"}},{"base_weights":[1.7800824E2,-2.6826526E2,2.5127705E4,-2.0717535E4,1.7985533E2,-1.7192386E3,3.7140426E4,-2.3523762E3,-5.014803E2,-7.556613E1,9.241097E2,5.905766E2,4.279678E3],"categories":[],"categories_nodes":[],"categories_segments":[],"categories_sizes":[],"default_left":[0,0,0,0,0,0,0,0,0,0,0,0,0],"id":48,"left_children":[1,3,5,7,9,-1,11,-1,-1,-1,-1,-1,-1],"loss_changes":[9.504375E9,7.692104E9,8.264225E9,6.7521024E8,6.97503E9,0E0,1.8673439E9,0E0,0E0,0E0,0E0,0E0,0E0],"parents":[2147483647,0,0,1,1,2,2,3,3,4,4,6,6],"right_children":[2,4,6,8,10,-1,12,-1,-1,-1,-1,-1,-1],"split_conditions":[1E0,-1.4161423E0,5.210619E-1,1E0,2.1522164E0,-1.7192386E3,-1.2653738E0,-2.3523762E3,-5.014803E2,-7.556613E1,9.241097E2,5.905766E2,4.279678E3],"split_indices":[85,4,5,178,23,0,1,0,0,0,0,0,0],"split_type":[0,0,0,0,0,0,0,0,0,0,0,0,0],"sum_hessian":[8.52E2,8.38E2,1.4E1,1.7E1,8.21E2,3E0,1.1E1,1.4E1,3E0,7.45E2,7.6E1,2E0,9E0],"tree_param":{"num_deleted":"0","num_feature":"287","num_nodes":"13","size_leaf_vector":"1"}},{"base_weights":[-6.5209314E2,-3.5939194E2,-2.9654625E4,-1.7567911E3,4.8275864E3,-4.1081915E2,-3.2334406E4,-1.5656105E2,-6.8173984E3,3.2874167E2,3.2221902E3,-3.5155571E3,-6.293125E2],"categories":[],"categories_nodes":[],"categories_segments":[],"categories_sizes":[],"default_left":[0,0,0,0,0,0,0,0,0,0,0,0,0],"id":49,"left_children":[1,3,5,7,9,-1,11,-1,-1,-1,-1,-1,-1],"loss_changes":[7.6464896E9,6.488443E9,4.832937E8,8.845132E9,7.910534E9,0E0,3.6649472E8,0E0,0E0,0E0,0E0,0E0,0E0],"parents":[2147483647,0,0,1,1,2,2,3,3,4,4,6,6],"right_children":[2,4,6,8,10,-1,12,-1,-1,-1,-1,-1,-1],"split_conditions":[1E0,1.2806852E0,-1.2185225E0,5.4253607E0,1.8622001E0,-4.1081915E2,1.2806852E0,-1.5656105E2,-6.8173984E3,3.2874167E2,3.2221902E3,-3.5155571E3,-6.293125E2],"split_indices":[36,4,10,28,28,0,4,0,0,0,0,0,0],"split_type":[0,0,0,0,0,0,0,0,0,0,0,0,0],"sum_hessian":[9.01E2,8.93E2,8E0,7.04E2,1.89E2,1E0,7E0,7.03E2,1E0,1.8E2,9E0,6E0,1E0],"tree_param":{"num_deleted":"0","num_feature":"287","num_nodes":"13","size_leaf_vector":"1"}},{"base_weights":[8.469594E1,-7.796578E2,1.2243798E4,-3.1361626E3,3.5747925E3,7.121259E3,3.9341926E4,-3.668321E2,2.8077478E3,4.4019724E2,-5.604868E3,-1.2627175E3,9.596133E2,4.4344917E3,1.4554308E3],"categories":[],"categories_nodes":[],"categories_segments":[],"categories_sizes":[],"default_left":[0,0,0,0,0,0,0,0,0,0,0,0,0,0,0],"id":50,"left_children":[1,3,5,7,9,11,13,-1,-1,-1,-1,-1,-1,-1,-1],"loss_changes":[9.18457E9,8.3844183E9,7.770887E9,8.906613E9,1.4401374E10,2.5649165E9,4.7070003E8,0E0,0E0,0E0,0E0,0E0,0E0,0E0,0E0],"parents":[2147483647,0,0,1,1,2,2,3,3,4,4,5,5,6,6],"right_children":[2,4,6,8,10,12,14,-1,-1,-1,-1,-1,-1,-1,-1],"split_conditions":[1.9185911E0,3.4921727E-1,1E0,1.9571799E0,2.6401432E0,1E0,5.463438E-1,-3.668321E2,2.8077478E3,4.4019724E2,-5.604868E3,-1.2627175E3,9.596133E2,4.4344917E3,1.4554308E3],"split_indices":[31,27,223,8,1,285,0,0,0,0,0,0,0,0,0],"split_type":[0,0,0,0,0,0,0,0,0,0,0,0,0,0,0],"sum_hessian":[8.72E2,8.15E2,5.7E1,5.29E2,2.86E2,4.9E1,8E0,5.21E2,8E0,2.83E2,3E0,5E0,4.4E1,6E0,2E0],"tree_param":{"num_deleted":"0","num_feature":"287","num_nodes":"15","size_leaf_vector":"1"}},{"base_weights":[7.4783716E2,3.256035E2,2.445174E4,-2.179956E3,3.8877417E3,4.9853336E4,-8.443177E2,-3.7186386E2,3.2700934E2,1.3927369E0,7.558666E2,6.0764927E3,-1.3263883E3,-2.6628423E3,1.032663E3],"categories":[],"categories_nodes":[],"categories_segments":[],"categories_sizes":[],"default_left":[0,0,0,0,0,0,0,0,0,0,0,0,0,0,0],"id":51,"left_children":[1,3,5,7,9,11,13,-1,-1,-1,-1,-1,-1,-1,-1],"loss_changes":[9.149895E9,8.04111E9,1.0323057E10,4.4482985E9,5.289912E9,6.315651E9,2.8672776E9,0E0,0E0,0E0,0E0,0E0,0E0,0E0,0E0],"parents":[2147483647,0,0,1,1,2,2,3,3,4,4,5,5,6,6],"right_children":[2,4,6,8,10,12,14,-1,-1,-1,-1,-1,-1,-1,-1],"split_conditions":[2.605522E0,1.1078101E0,1E0,1.2806852E0,5.3949344E-1,1E0,-5.606292E-1,-3.7186386E2,3.2700934E2,1.3927369E0,7.558666E2,6.0764927E3,-1.3263883E3,-2.6628423E3,1.032663E3],"split_indices":[18,16,225,4,6,110,27,0,0,0,0,0,0,0,0],"split_type":[0,0,0,0,0,0,0,0,0,0,0,0,0,0,0],"sum_hessian":[9.14E2,8.99E2,1.5E1,5.28E2,3.71E2,7E0,8E0,4.12E2,1.16E2,1.81E2,1.9E2,6E0,1E0,2E0,6E0],"tree_param":{"num_deleted":"0","num_feature":"287","num_nodes":"15","size_leaf_vector":"1"}},{"base_weights":[-3.8597696E2,-1.716467E2,-6.105567E3,-7.407393E2,1.791459E4,-3.963403E2,2.3389221E2,7.247283E2,3.7258691E3],"categories":[],"categories_nodes":[],"categories_segments":[],"categories_sizes":[],"default_left":[0,0,0,0,0,0,0,0,0],"id":52,"left_children":[1,3,-1,5,7,-1,-1,-1,-1],"loss_changes":[1.1081379E10,8.772394E9,0E0,8.207083E9,5.0950625E9,0E0,0E0,0E0,0E0],"parents":[2147483647,0,0,1,1,3,3,4,4],"right_children":[2,4,-1,6,8,-1,-1,-1,-1],"split_conditions":[4.4439816E0,1E0,-6.105567E3,4.425864E-1,9.111906E-2,-3.963403E2,2.3389221E2,7.247283E2,3.7258691E3],"split_indices":[28,135,0,6,2,0,0,0,0],"split_type":[0,0,0,0,0,0,0,0,0],"sum_hessian":[8.52E2,8.5E2,2E0,8.25E2,2.5E1,4.03E2,4.22E2,1.7E1,8E0],"tree_param":{"num_deleted":"0","num_feature":"287","num_nodes":"9","size_leaf_vector":"1"}},{"base_weights":[-9.079353E2,-8.497095E3,3.0714246E2,-5.498854E3,-1.3135631E4,6.4180634E2,-2.7095053E4,-9.9913055E2,-2.5471165E2,-1.4116418E3,1.5499906E3,1.7790062E1,1.9136605E3,-3.335258E2,-2.964812E3],"categories":[],"categories_nodes":[],"categories_segments":[],"categories_sizes":[],"default_left":[0,0,0,0,0,0,0,0,0,0,0,0,0,0,0],"id":53,"left_children":[1,3,5,7,9,11,13,-1,-1,-1,-1,-1,-1,-1,-1],"loss_changes":[7.951472E9,1.5827548E9,6.8402596E9,9.5583104E8,1.5107308E9,6.31136E9,4.4705946E8,0E0,0E0,0E0,0E0,0E0,0E0,0E0,0E0],"parents":[2147483647,0,0,1,1,2,2,3,3,4,4,5,5,6,6],"right_children":[2,4,6,8,10,12,14,-1,-1,-1,-1,-1,-1,-1,-1],"split_conditions":[-4.5268568E-1,6.5147924E-1,1E0,-9.6937156E-1,2.09811E0,1.1693892E0,-1.2185225E0,-9.9913055E2,-2.5471165E2,-1.4116418E3,1.5499906E3,1.7790062E1,1.9136605E3,-3.335258E2,-2.964812E3],"split_indices":[2,3,36,5,3,6,10,0,0,0,0,0,0,0,0],"split_type":[0,0,0,0,0,0,0,0,0,0,0,0,0,0,0],"sum_hessian":[8.61E2,1.18E2,7.43E2,7.3E1,4.5E1,7.35E2,8E0,2.8E1,4.5E1,4.4E1,1E0,7.18E2,1.7E1,1E0,7E0],"tree_param":{"num_deleted":"0","num_feature":"287","num_nodes":"15","size_leaf_vector":"1"}},{"base_weights":[1.0970894E2,1.0182719E3,-1.3256421E4,1.9936806E2,1.1618228E4,-6.272194E3,-2.4265541E4,-2.9175663E1,1.5108973E3,5.485151E2,2.0078206E3,-8.5515295E2,1.353054E3,-3.660594E2,-2.7496335E3],"categories":[],"categories_nodes":[],"categories_segments":[],"categories_sizes":[],"default_left":[0,0,0,0,0,0,0,0,0,0,0,0,0,0,0],"id":54,"left_children":[1,3,5,7,9,11,13,-1,-1,-1,-1,-1,-1,-1,-1],"loss_changes":[1.0493745E10,7.0200817E9,4.0767631E9,5.5109094E9,2.899239E9,1.6955041E9,1.297323E9,0E0,0E0,0E0,0E0,0E0,0E0,0E0,0E0],"parents":[2147483647,0,0,1,1,2,2,3,3,4,4,5,5,6,6],"right_children":[2,4,6,8,10,12,14,-1,-1,-1,-1,-1,-1,-1,-1],"split_conditions":[1E0,1E0,8.919936E-1,1E0,4.6932536E-1,1.1596504E0,1E0,-2.9175663E1,1.5108973E3,5.485151E2,2.0078206E3,-8.5515295E2,1.353054E3,-3.660594E2,-2.7496335E3],"split_indices":[281,56,35,135,12,11,119,0,0,0,0,0,0,0,0],"split_type":[0,0,0,0,0,0,0,0,0,0,0,0,0,0,0],"sum_hessian":[8.62E2,8.08E2,5.4E1,7.51E2,5.7E1,3.4E1,2E1,7.28E2,2.3E1,3.4E1,2.3E1,3.1E1,3E0,3E0,1.7E1],"tree_param":{"num_deleted":"0","num_feature":"287","num_nodes":"15","size_leaf_vector":"1"}},{"base_weights":[-4.6258176E2,-3.215273E2,-6.194261E3,-1.1484304E3,9.831701E3,-1.3072551E2,3.1181555E3,3.1515193E3,5.396878E2],"categories":[],"categories_nodes":[],"categories_segments":[],"categories_sizes":[],"default_left":[0,0,0,0,0,0,0,0,0],"id":55,"left_children":[1,3,-1,5,7,-1,-1,-1,-1],"loss_changes":[7.5767823E9,7.357561E9,0E0,4.1999498E9,6.1766385E9,0E0,0E0,0E0,0E0],"parents":[2147483647,0,0,1,1,3,3,4,4],"right_children":[2,4,-1,6,8,-1,-1,-1,-1],"split_conditions":[1E0,2.1522164E0,-6.194261E3,1.1882444E1,-1.0356131E0,-1.3072551E2,3.1181555E3,3.1515193E3,5.396878E2],"split_indices":[101,23,0,32,5,0,0,0,0],"split_type":[0,0,0,0,0,0,0,0,0],"sum_hessian":[8.75E2,8.74E2,1E0,8.09E2,6.5E1,8.06E2,3E0,1E1,5.5E1],"tree_param":{"num_deleted":"0","num_feature":"287","num_nodes":"9","size_leaf_vector":"1"}},{"base_weights":[7.678402E1,-1.8898454E2,3.260348E4,-5.767376E2,1.9004506E4,5.741547E3,-1.9617662E4,-1.0506825E2,1.493485E3,2.3780156E3,-2.8702954E3,8.393984E1,-3.026589E3],"categories":[],"categories_nodes":[],"categories_segments":[],"categories_sizes":[],"default_left":[0,0,0,0,0,0,0,0,0,0,0,0,0],"id":56,"left_children":[1,3,5,7,9,-1,11,-1,-1,-1,-1,-1,-1],"loss_changes":[7.466428E9,6.3890417E9,1.019633E10,6.1984184E9,4.5557417E9,0E0,6.7889946E8,0E0,0E0,0E0,0E0,0E0,0E0],"parents":[2147483647,0,0,1,1,2,2,3,3,4,4,6,6],"right_children":[2,4,6,8,10,-1,12,-1,-1,-1,-1,-1,-1],"split_conditions":[2.8369987E0,1E0,5.033678E-1,1E0,1.8124247E0,5.741547E3,6.5147924E-1,-1.0506825E2,1.493485E3,2.3780156E3,-2.8702954E3,8.393984E1,-3.026589E3],"split_indices":[12,67,28,69,8,0,3,0,0,0,0,0,0],"split_type":[0,0,0,0,0,0,0,0,0,0,0,0,0],"sum_hessian":[8.62E2,8.56E2,6E0,8.4E2,1.6E1,4E0,2E0,8.16E2,2.4E1,1.5E1,1E0,1E0,1E0],"tree_param":{"num_deleted":"0","num_feature":"287","num_nodes":"13","size_leaf_vector":"1"}},{"base_weights":[6.0073846E2,4.640801E3,-1.1731237E3,5.4584995E3,-2.271893E4,-7.0326074E2,-1.9858105E4,2.9072604E2,2.192204E3,5.6147943E2,-5.2456353E3,2.7374979E1,-6.8665314E2,-2.6579912E3,5.271836E2],"categories":[],"categories_nodes":[],"categories_segments":[],"categories_sizes":[],"default_left":[0,0,0,0,0,0,0,0,0,0,0,0,0,0,0],"id":57,"left_children":[1,3,5,7,9,11,13,-1,-1,-1,-1,-1,-1,-1,-1],"loss_changes":[6.3191424E9,6.142083E9,5.367794E9,1.0940904E10,7.0351063E9,3.6088061E9,2.6739036E9,0E0,0E0,0E0,0E0,0E0,0E0,0E0,0E0],"parents":[2147483647,0,0,1,1,2,2,3,3,4,4,5,5,6,6],"right_children":[2,4,6,8,10,12,14,-1,-1,-1,-1,-1,-1,-1,-1],"split_conditions":[1E0,3.6468966E0,1.8124247E0,1E0,2.801586E0,7.828283E-1,2.3453872E0,2.9072604E2,2.192204E3,5.6147943E2,-5.2456353E3,2.7374979E1,-6.8665314E2,-2.6579912E3,5.271836E2],"split_indices":[192,7,8,278,8,0,8,0,0,0,0,0,0,0,0],"split_type":[0,0,0,0,0,0,0,0,0,0,0,0,0,0,0],"sum_hessian":[8.8E2,2.68E2,6.12E2,2.61E2,7E0,5.98E2,1.4E1,2.27E2,3.4E1,4E0,3E0,5.17E2,8.1E1,1.1E1,3E0],"tree_param":{"num_deleted":"0","num_feature":"287","num_nodes":"15","size_leaf_vector":"1"}},{"base_weights":[2.7545535E2,5.3205145E2,-4.4170758E4,-1.2923924E2,1.8942283E4,-5.839391E2,-5.2293755E3,-1.9486188E2,6.465469E2,1.1067593E3,4.3235186E3],"categories":[],"categories_nodes":[],"categories_segments":[],"categories_sizes":[],"default_left":[0,0,0,0,0,0,0,0,0,0,0],"id":58,"left_children":[1,3,5,7,9,-1,-1,-1,-1,-1,-1],"loss_changes":[9.934207E9,1.0533404E10,1.2514642E9,1.0043159E10,5.260462E9,0E0,0E0,0E0,0E0,0E0,0E0],"parents":[2147483647,0,0,1,1,2,2,3,3,4,4],"right_children":[2,4,6,8,10,-1,-1,-1,-1,-1,-1],"split_conditions":[3.49943E0,1.2165976E0,-8.807793E-2,1.2806852E0,1E0,-5.839391E2,-5.2293755E3,-1.9486188E2,6.465469E2,1.1067593E3,4.3235186E3],"split_indices":[12,5,2,4,190,0,0,0,0,0,0],"split_type":[0,0,0,0,0,0,0,0,0,0,0],"sum_hessian":[8.68E2,8.64E2,4E0,8.35E2,2.9E1,1E0,3E0,6.55E2,1.8E2,2.3E1,6E0],"tree_param":{"num_deleted":"0","num_feature":"287","num_nodes":"11","size_leaf_vector":"1"}},{"base_weights":[1.9464111E2,8.893148E2,-9.894009E3,-5.5598486E3,1.8431553E3,-4.996169E3,-1.916895E4,-6.976257E2,2.7549332E2,1.2998854E2,1.9579813E3,-1.9834164E3,1.7835388E2,-2.514043E3,-5.3406384E2],"categories":[],"categories_nodes":[],"categories_segments":[],"categories_sizes":[],"default_left":[0,0,0,0,0,0,0,0,0,0,0,0,0,0,0],"id":59,"left_children":[1,3,5,7,9,11,13,-1,-1,-1,-1,-1,-1,-1,-1],"loss_changes":[6.09202E9,5.0113956E9,2.4481505E9,1.2558164E9,6.806324E9,3.8580718E9,1.434668E9,0E0,0E0,0E0,0E0,0E0,0E0,0E0,0E0],"parents":[2147483647,0,0,1,1,2,2,3,3,4,4,5,5,6,6],"right_children":[2,4,6,8,10,12,14,-1,-1,-1,-1,-1,-1,-1,-1],"split_conditions":[1E0,-8.788622E-1,2.9676324E-1,1E0,1E0,-9.4969636E-1,1.64422E-1,-6.976257E2,2.7549332E2,1.2998854E2,1.9579813E3,-1.9834164E3,1.7835388E2,-2.514043E3,-5.3406384E2],"split_indices":[281,11,22,117,135,26,29,0,0,0,0,0,0,0,0],"split_type":[0,0,0,0,0,0,0,0,0,0,0,0,0,0,0],"sum_hessian":[8.67E2,8.12E2,5.5E1,1.04E2,7.08E2,3.7E1,1.8E1,8.9E1,1.5E1,6.88E2,2E1,1.1E1,2.6E1,1.2E1,6E0],"tree_param":{"num_deleted":"0","num_feature":"287","num_nodes":"15","size_leaf_vector":"1"}},{"base_weights":[-4.25787E2,-6.147223E2,4.181323E4,-7.0752725E3,5.0670654E2,1.0890618E3,4.849056E3,-6.0630414E2,-2.7321626E3,-1.6458838E2,3.730402E2],"categories":[],"categories_nodes":[],"categories_segments":[],"categories_sizes":[],"default_left":[0,0,0,0,0,0,0,0,0,0,0],"id":60,"left_children":[1,3,5,7,9,-1,-1,-1,-1,-1,-1],"loss_changes":[7.1681987E9,6.4661673E9,2.978304E8,2.5395548E9,5.286944E9,0E0,0E0,0E0,0E0,0E0,0E0],"parents":[2147483647,0,0,1,1,2,2,3,3,4,4],"right_children":[2,4,6,8,10,-1,-1,-1,-1,-1,-1],"split_conditions":[1.2679187E1,-4.65915E-1,-6.1819762E-2,3.855628E-1,3.8174272E-1,1.0890618E3,4.849056E3,-6.0630414E2,-2.7321626E3,-1.6458838E2,3.730402E2],"split_indices":[32,2,2,15,4,0,0,0,0,0,0],"split_type":[0,0,0,0,0,0,0,0,0,0,0],"sum_hessian":[8.94E2,8.91E2,3E0,1.31E2,7.6E2,1E0,2E0,1.26E2,5E0,4.56E2,3.04E2],"tree_param":{"num_deleted":"0","num_feature":"287","num_nodes":"11","size_leaf_vector":"1"}},{"base_weights":[2.8076605E2,-4.2047344E1,2.181317E4,-2.4397511E2,3.485948E4,7.9066626E3,5.1126147E3,-1.2356862E1,-5.2077393E3,1.2841282E3,4.5257856E3,-5.6177655E2,1.4505385E3],"categories":[],"categories_nodes":[],"categories_segments":[],"categories_sizes":[],"default_left":[0,0,0,0,0,0,0,0,0,0,0,0,0],"id":61,"left_children":[1,3,5,7,9,11,-1,-1,-1,-1,-1,-1,-1],"loss_changes":[6.1177523E9,6.1258117E9,4.895098E9,5.3858575E9,5.635978E8,9.739272E8,0E0,0E0,0E0,0E0,0E0,0E0,0E0],"parents":[2147483647,0,0,1,1,2,2,3,3,4,4,5,5],"right_children":[2,4,6,8,10,12,-1,-1,-1,-1,-1,-1,-1],"split_conditions":[1.2677147E0,1.2853475E1,1.2961109E0,1E0,3.9169672E-1,3.790729E-1,5.1126147E3,-1.2356862E1,-5.2077393E3,1.2841282E3,4.5257856E3,-5.6177655E2,1.4505385E3],"split_indices":[24,32,26,101,12,26,0,0,0,0,0,0,0],"split_type":[0,0,0,0,0,0,0,0,0,0,0,0,0],"sum_hessian":[8.79E2,8.67E2,1.2E1,8.63E2,4E0,9E0,3E0,8.62E2,1E0,2E0,2E0,3E0,6E0],"tree_param":{"num_deleted":"0","num_feature":"287","num_nodes":"13","size_leaf_vector":"1"}},{"base_weights":[3.612883E2,-4.1783017E2,1.2408757E4,-1.7181469E3,5.6983657E3,9.258618E3,4.0798363E4,-7.749073E1,-1.1404878E3,3.4765472E2,1.8546324E3,4.9645044E3,6.48377E2,5.1448374E3,-9.008437E1],"categories":[],"categories_nodes":[],"categories_segments":[],"categories_sizes":[],"default_left":[0,0,0,0,0,0,0,0,0,0,0,0,0,0,0],"id":62,"left_children":[1,3,5,7,9,11,13,-1,-1,-1,-1,-1,-1,-1,-1],"loss_changes":[8.1901297E9,6.5312435E9,4.3621176E9,6.1768484E9,4.0461225E9,5.1693573E9,2.266832E9,0E0,0E0,0E0,0E0,0E0,0E0,0E0,0E0],"parents":[2147483647,0,0,1,1,2,2,3,3,4,4,5,5,6,6],"right_children":[2,4,6,8,10,12,14,-1,-1,-1,-1,-1,-1,-1,-1],"split_conditions":[1.1834768E0,1.1206031E0,1E0,1.3747946E0,1.5048634E0,-9.4911844E-1,1.2497183E0,-7.749073E1,-1.1404878E3,3.4765472E2,1.8546324E3,4.9645044E3,6.48377E2,5.1448374E3,-9.008437E1],"split_indices":[5,13,85,3,7,10,5,0,0,0,0,0,0,0,0],"split_type":[0,0,0,0,0,0,0,0,0,0,0,0,0,0,0],"sum_hessian":[8.71E2,8.19E2,5.2E1,6.76E2,1.43E2,4.8E1,4E0,6.17E2,5.9E1,1.23E2,2E1,2E0,4.6E1,3E0,1E0],"tree_param":{"num_deleted":"0","num_feature":"287","num_nodes":"15","size_leaf_vector":"1"}},{"base_weights":[-3.550568E2,-5.292304E2,3.648434E4,-6.356053E3,4.2658383E2,9.7427655E2,4.215061E3,-4.6433395E2,-1.8869739E3,9.668653E1,-1.0948627E3],"categories":[],"categories_nodes":[],"categories_segments":[],"categories_sizes":[],"default_left":[0,0,0,0,0,0,0,0,0,0,0],"id":63,"left_children":[1,3,5,7,9,-1,-1,-1,-1,-1,-1],"loss_changes":[5.4540426E9,4.7032515E9,1.9543654E8,2.462832E9,4.472448E9,0E0,0E0,0E0,0E0,0E0,0E0],"parents":[2147483647,0,0,1,1,2,2,3,3,4,4],"right_children":[2,4,6,8,10,-1,-1,-1,-1,-1,-1],"split_conditions":[1.2679187E1,-4.5268568E-1,-6.1819762E-2,1.3747946E0,4.3285794E0,9.7427655E2,4.215061E3,-4.6433395E2,-1.8869739E3,9.668653E1,-1.0948627E3],"split_indices":[32,2,2,3,21,0,0,0,0,0,0],"split_type":[0,0,0,0,0,0,0,0,0,0,0],"sum_hessian":[8.46E2,8.43E2,3E0,1.18E2,7.25E2,1E0,2E0,1.05E2,1.3E1,6.93E2,3.2E1],"tree_param":{"num_deleted":"0","num_feature":"287","num_nodes":"11","size_leaf_vector":"1"}},{"base_weights":[-1.0542477E2,-9.955793E2,8.830391E3,-9.493877E3,-2.567476E2,1.5861408E4,1.5839977E3,-3.235065E3,-8.631261E2,-6.983884E1,1.5086722E3,-1.0075962E2,2.563228E3,-3.748797E2,1.6468783E3],"categories":[],"categories_nodes":[],"categories_segments":[],"categories_sizes":[],"default_left":[0,0,0,0,0,0,0,0,0,0,0,0,0,0,0],"id":64,"left_children":[1,3,5,7,9,11,13,-1,-1,-1,-1,-1,-1,-1,-1],"loss_changes":[7.111942E9,5.1022367E9,4.101786E9,1.00235315E9,5.085986E9,6.7836467E9,3.3162156E9,0E0,0E0,0E0,0E0,0E0,0E0,0E0,0E0],"parents":[2147483647,0,0,1,1,2,2,3,3,4,4,5,5,6,6],"right_children":[2,4,6,8,10,12,14,-1,-1,-1,-1,-1,-1,-1,-1],"split_conditions":[1E0,-1.2304223E0,-5.778388E-1,-3.1884613E0,2.4208312E0,1.4495455E-1,5.6316686E-1,-3.235065E3,-8.631261E2,-6.983884E1,1.5086722E3,-1.0075962E2,2.563228E3,-3.748797E2,1.6468783E3],"split_indices":[190,26,10,5,28,11,10,0,0,0,0,0,0,0,0],"split_type":[0,0,0,0,0,0,0,0,0,0,0,0,0,0,0],"sum_hessian":[8.92E2,8.12E2,8E1,6.4E1,7.48E2,4E1,4E1,1E0,6.3E1,7.28E2,2E1,1.5E1,2.5E1,3E1,1E1],"tree_param":{"num_deleted":"0","num_feature":"287","num_nodes":"15","size_leaf_vector":"1"}},{"base_weights":[-1.826588E1,-6.4202827E3,1.0610247E3,-5.0191597E3,-5.0001436E3,-2.2678027E4,1.36636E3,-5.963111E2,1.9583453E3,-4.2726694E2,-2.6745286E3,-1.4116172E1,6.84664E2],"categories":[],"categories_nodes":[],"categories_segments":[],"categories_sizes":[],"default_left":[0,0,0,0,0,0,0,0,0,0,0,0,0],"id":65,"left_children":[1,3,5,7,-1,9,11,-1,-1,-1,-1,-1,-1],"loss_changes":[6.3222195E9,7.809293E9,5.70646E9,3.1126313E9,0E0,6.3431936E8,6.395477E9,0E0,0E0,0E0,0E0,0E0,0E0],"parents":[2147483647,0,0,1,1,2,2,3,3,5,5,6,6],"right_children":[2,4,6,8,-1,10,12,-1,-1,-1,-1,-1,-1],"split_conditions":[1E0,2.6855562E0,-2.3604429E0,3.024757E0,-5.0001436E3,-7.951515E-1,9.899826E-1,-5.963111E2,1.9583453E3,-4.2726694E2,-2.6745286E3,-1.4116172E1,6.84664E2],"split_indices":[90,1,5,28,0,3,13,0,0,0,0,0,0],"split_type":[0,0,0,0,0,0,0,0,0,0,0,0,0],"sum_hessian":[9.13E2,1.31E2,7.82E2,1.28E2,3E0,9E0,7.73E2,1.24E2,4E0,2E0,7E0,6.07E2,1.66E2],"tree_param":{"num_deleted":"0","num_feature":"287","num_nodes":"13","size_leaf_vector":"1"}},{"base_weights":[7.832975E2,-1.3019813E3,3.699426E3,-2.1215437E3,1.250591E4,3.1490098E3,2.5305025E4,-1.5340001E2,-1.2917992E3,-7.677174E2,1.9276764E3,3.555042E2,-3.3876614E3,3.3762312E3,-2.1176626E3],"categories":[],"categories_nodes":[],"categories_segments":[],"categories_sizes":[],"default_left":[0,0,0,0,0,0,0,0,0,0,0,0,0,0,0],"id":66,"left_children":[1,3,5,7,9,11,13,-1,-1,-1,-1,-1,-1,-1,-1],"loss_changes":[5.368207E9,5.854492E9,4.296597E9,3.0694129E9,4.1110354E9,5.5325266E9,4.252949E9,0E0,0E0,0E0,0E0,0E0,0E0,0E0,0E0],"parents":[2147483647,0,0,1,1,2,2,3,3,4,4,5,5,6,6],"right_children":[2,4,6,8,10,12,14,-1,-1,-1,-1,-1,-1,-1,-1],"split_conditions":[1.1078101E0,1E0,2.912621E0,1.1843425E0,-8.309777E-1,2.6855562E0,1.1041546E1,-1.5340001E2,-1.2917992E3,-7.677174E2,1.9276764E3,3.555042E2,-3.3876614E3,3.3762312E3,-2.1176626E3],"split_indices":[16,37,1,24,11,1,1,0,0,0,0,0,0,0,0],"split_type":[0,0,0,0,0,0,0,0,0,0,0,0,0,0,0],"sum_hessian":[8.81E2,5.14E2,3.67E2,4.86E2,2.8E1,3.59E2,8E0,4.62E2,2.4E1,7E0,2.1E1,3.56E2,3E0,7E0,1E0],"tree_param":{"num_deleted":"0","num_feature":"287","num_nodes":"15","size_leaf_vector":"1"}},{"base_weights":[-5.417869E2,-8.039941E2,2.5913932E4,-9.054734E3,-2.1857684E2,1.1706591E4,4.0746462E3,-6.572365E2,-2.4368591E3,-1.0896387E1,-4.647558E3,-9.883301E1,1.4443241E3],"categories":[],"categories_nodes":[],"categories_segments":[],"categories_sizes":[],"default_left":[0,0,0,0,0,0,0,0,0,0,0,0,0],"id":67,"left_children":[1,3,5,7,9,11,-1,-1,-1,-1,-1,-1,-1],"loss_changes":[6.3611423E9,4.3741143E9,1.4195748E9,2.1207204E9,4.2895368E9,2.2272397E8,0E0,0E0,0E0,0E0,0E0,0E0,0E0],"parents":[2147483647,0,0,1,1,2,2,3,3,4,4,5,5],"right_children":[2,4,6,8,10,12,-1,-1,-1,-1,-1,-1,-1],"split_conditions":[3.094273E0,1E0,2.751498E-1,2.3735541E-1,3.2029529E0,-6.401009E-1,4.0746462E3,-6.572365E2,-2.4368591E3,-1.0896387E1,-4.647558E3,-9.883301E1,1.4443241E3],"split_indices":[1,233,15,7,8,2,0,0,0,0,0,0,0],"split_type":[0,0,0,0,0,0,0,0,0,0,0,0,0],"sum_hessian":[9.13E2,9.05E2,8E0,5.9E1,8.46E2,5E0,3E0,5.2E1,7E0,8.45E2,1E0,1E0,4E0],"tree_param":{"num_deleted":"0","num_feature":"287","num_nodes":"13","size_leaf_vector":"1"}},{"base_weights":[-3.5671408E2,-1.1833146E3,7.9344146E3,-6.597664E3,-4.026413E2,2.7032932E4,4.497942E3,-5.611029E2,-2.912081E3,-6.0766155E1,2.8298718E3,3.3518677E3,-2.2155117E3,4.6339508E1,2.3623423E3],"categories":[],"categories_nodes":[],"categories_segments":[],"categories_sizes":[],"default_left":[0,0,0,0,0,0,0,0,0,0,0,0,0,0,0],"id":68,"left_children":[1,3,5,7,9,11,13,-1,-1,-1,-1,-1,-1,-1,-1],"loss_changes":[6.047279E9,3.3872676E9,5.12893E9,2.0810373E9,4.1480174E9,4.5708626E9,5.313275E9,0E0,0E0,0E0,0E0,0E0,0E0,0E0,0E0],"parents":[2147483647,0,0,1,1,2,2,3,3,4,4,5,5,6,6],"right_children":[2,4,6,8,10,12,14,-1,-1,-1,-1,-1,-1,-1,-1],"split_conditions":[1E0,-1.433062E0,-8.591104E-1,1.3231665E0,4.093359E0,1.7318834E0,9.936184E-1,-5.611029E2,-2.912081E3,-6.0766155E1,2.8298718E3,3.3518677E3,-2.2155117E3,4.6339508E1,2.3623423E3],"split_indices":[190,5,34,1,1,1,2,0,0,0,0,0,0,0,0],"split_type":[0,0,0,0,0,0,0,0,0,0,0,0,0,0,0],"sum_hessian":[8.8E2,8.01E2,7.9E1,1E2,7.01E2,1.1E1,6.8E1,9.7E1,3E0,6.97E2,4E0,1E1,1E0,5.7E1,1.1E1],"tree_param":{"num_deleted":"0","num_feature":"287","num_nodes":"15","size_leaf_vector":"1"}},{"base_weights":[1.3183557E2,3.0591504E2,-3.7719888E3,4.6715652E1,2.256647E4,-8.048424E0,3.6410312E3,2.9766638E3,4.3245587E2],"categories":[],"categories_nodes":[],"categories_segments":[],"categories_sizes":[],"default_left":[0,0,0,0,0,0,0,0,0],"id":69,"left_children":[1,3,-1,5,7,-1,-1,-1,-1],"loss_changes":[5.7573284E9,5.013008E9,0E0,3.9808138E9,1.1847209E9,0E0,0E0,0E0,0E0],"parents":[2147483647,0,0,1,1,3,3,4,4],"right_children":[2,4,-1,6,8,-1,-1,-1,-1],"split_conditions":[3.0927567E0,3.5161068E0,-3.7719888E3,3.3205261E0,7.3374964E-2,-8.048424E0,3.6410312E3,2.9766638E3,4.3245587E2],"split_indices":[26,2,0,13,0,0,0,0,0],"split_type":[0,0,0,0,0,0,0,0,0],"sum_hessian":[8.71E2,8.68E2,3E0,8.59E2,9E0,8.57E2,2E0,6E0,3E0],"tree_param":{"num_deleted":"0","num_feature":"287","num_nodes":"9","size_leaf_vector":"1"}},{"base_weights":[-8.859546E1,-8.69999E3,5.130444E2,-1.00737705E4,1.2021033E4,-9.0120346E1,1.0165558E4,3.257483E2,-1.2128584E3,-1.0000313E2,1.6694733E3,-6.2109894E1,1.3480405E3,4.108702E2,2.2022478E3],"categories":[],"categories_nodes":[],"categories_segments":[],"categories_sizes":[],"default_left":[0,0,0,0,0,0,0,0,0,0,0,0,0,0,0],"id":70,"left_children":[1,3,5,7,9,11,13,-1,-1,-1,-1,-1,-1,-1,-1],"loss_changes":[4.5222595E9,1.7436657E9,4.751714E9,1.518744E9,2.6012134E8,5.5495245E9,3.356667E9,0E0,0E0,0E0,0E0,0E0,0E0,0E0,0E0],"parents":[2147483647,0,0,1,1,2,2,3,3,4,4,5,5,6,6],"right_children":[2,4,6,8,10,12,14,-1,-1,-1,-1,-1,-1,-1,-1],"split_conditions":[-5.171998E-1,6.8410915E-1,1.9185911E0,-1.7955087E0,-6.360783E-1,1E0,4.2469837E-2,3.257483E2,-1.2128584E3,-1.0000313E2,1.6694733E3,-6.2109894E1,1.3480405E3,4.108702E2,2.2022478E3],"split_indices":[4,24,31,11,0,69,10,0,0,0,0,0,0,0,0],"split_type":[0,0,0,0,0,0,0,0,0,0,0,0,0,0,0],"sum_hessian":[8.71E2,5.6E1,8.15E2,5.3E1,3E0,7.68E2,4.7E1,7E0,4.6E1,1E0,2E0,7.4E2,2.8E1,3.2E1,1.5E1],"tree_param":{"num_deleted":"0","num_feature":"287","num_nodes":"15","size_leaf_vector":"1"}},{"base_weights":[3.2500952E2,-2.7966794E2,9.814667E3,-1.6875592E3,3.0009873E3,7.0356304E3,3.0874354E4,-1.3039445E2,-1.7487031E3,3.3694785E2,-4.5297876E3,5.256299E2,2.1642488E3,3.8725408E3,1.01148334E3],"categories":[],"categories_nodes":[],"categories_segments":[],"categories_sizes":[],"default_left":[0,0,0,0,0,0,0,0,0,0,0,0,0,0,0],"id":71,"left_children":[1,3,5,7,9,11,13,-1,-1,-1,-1,-1,-1,-1,-1],"loss_changes":[5.1728466E9,3.921812E9,2.9431644E9,3.5773788E9,4.691044E9,1.1597724E9,5.8620365E8,0E0,0E0,0E0,0E0,0E0,0E0,0E0,0E0],"parents":[2147483647,0,0,1,1,2,2,3,3,4,4,5,5,6,6],"right_children":[2,4,6,8,10,12,14,-1,-1,-1,-1,-1,-1,-1,-1],"split_conditions":[2.4568205E0,5.088395E-1,1.5276563E0,1.5256312E0,3.2029529E0,5.3273773E0,1.1873449E0,-1.3039445E2,-1.7487031E3,3.3694785E2,-4.5297876E3,5.256299E2,2.1642488E3,3.8725408E3,1.01148334E3],"split_indices":[31,27,22,14,8,31,8,0,0,0,0,0,0,0,0],"split_type":[0,0,0,0,0,0,0,0,0,0,0,0,0,0,0],"sum_hessian":[9E2,8.47E2,5.3E1,5.93E2,2.54E2,4.8E1,5E0,5.8E2,1.3E1,2.53E2,1E0,4.4E1,4E0,3E0,2E0],"tree_param":{"num_deleted":"0","num_feature":"287","num_nodes":"15","size_leaf_vector":"1"}},{"base_weights":[3.615019E2,-5.1528906E2,1.0239024E4,-1.8912228E2,-1.8557441E4,6.3327656E3,4.449068E3,-2.0000627E2,2.6140024E2,-4.4747886E3,-1.0463378E3,2.71138E2,4.0887598E3],"categories":[],"categories_nodes":[],"categories_segments":[],"categories_sizes":[],"default_left":[0,0,0,0,0,0,0,0,0,0,0,0,0],"id":72,"left_children":[1,3,5,7,9,11,-1,-1,-1,-1,-1,-1,-1],"loss_changes":[7.4360044E9,4.639559E9,9.083958E9,3.9444308E9,2.499606E9,7.897865E9,0E0,0E0,0E0,0E0,0E0,0E0,0E0],"parents":[2147483647,0,0,1,1,2,2,3,3,4,4,5,5],"right_children":[2,4,6,8,10,12,-1,-1,-1,-1,-1,-1,-1],"split_conditions":[1E0,1E0,2.096939E0,3.8174272E-1,1E0,1E0,4.449068E3,-2.0000627E2,2.6140024E2,-4.4747886E3,-1.0463378E3,2.71138E2,4.0887598E3],"split_indices":[278,284,12,4,236,50,0,0,0,0,0,0,0],"split_type":[0,0,0,0,0,0,0,0,0,0,0,0,0],"sum_hessian":[8.57E2,7.88E2,6.9E1,7.75E2,1.3E1,6.3E1,6E0,4.71E2,3.04E2,2E0,1.1E1,5.8E1,5E0],"tree_param":{"num_deleted":"0","num_feature":"287","num_nodes":"13","size_leaf_vector":"1"}},{"base_weights":[5.7840643E2,7.5677966E2,-2.5411846E4,2.5905316E2,1.0826389E4,2.2005469E3,-3.9296404E3,-5.293929E2,8.658338E1,5.409543E2,2.5107827E3],"categories":[],"categories_nodes":[],"categories_segments":[],"categories_sizes":[],"default_left":[0,0,0,0,0,0,0,0,0,0,0],"id":73,"left_children":[1,3,5,7,9,-1,-1,-1,-1,-1,-1],"loss_changes":[4.0803374E9,4.3625697E9,4.8149463E9,2.8045898E9,3.035952E9,0E0,0E0,0E0,0E0,0E0,0E0],"parents":[2147483647,0,0,1,1,2,2,3,3,4,4],"right_children":[2,4,6,8,10,-1,-1,-1,-1,-1,-1],"split_conditions":[3.49943E0,1.8951592E0,2.260179E-1,-1.1849672E0,8.160666E-1,2.2005469E3,-3.9296404E3,-5.293929E2,8.658338E1,5.409543E2,2.5107827E3],"split_indices":[12,13,2,15,12,0,0,0,0,0,0],"split_type":[0,0,0,0,0,0,0,0,0,0,0],"sum_hessian":[8.75E2,8.7E2,5E0,8.3E2,4E1,1E0,4E0,8.1E1,7.49E2,3E1,1E1],"tree_param":{"num_deleted":"0","num_feature":"287","num_nodes":"11","size_leaf_vector":"1"}},{"base_weights":[1.7285541E2,7.375111E2,-7.126256E3,8.6385785E2,-3.4253688E4,1.380995E3,-1.1024574E4,-5.3155255E2,1.6089072E2,-8.0878284E2,-4.3292705E3,-5.1613684E2,2.3348833E3,-1.3586665E3,7.4664453E2],"categories":[],"categories_nodes":[],"categories_segments":[],"categories_sizes":[],"default_left":[0,0,0,0,0,0,0,0,0,0,0,0,0,0,0],"id":74,"left_children":[1,3,5,7,9,11,13,-1,-1,-1,-1,-1,-1,-1,-1],"loss_changes":[3.6733773E9,3.6857782E9,2.1377196E9,3.8068068E9,3.5939686E8,3.1386647E9,2.1859738E9,0E0,0E0,0E0,0E0,0E0,0E0,0E0,0E0],"parents":[2147483647,0,0,1,1,2,2,3,3,4,4,5,5,6,6],"right_children":[2,4,6,8,10,12,14,-1,-1,-1,-1,-1,-1,-1,-1],"split_conditions":[1E0,3.764582E0,-7.7190334E-1,-5.1783E-1,8.640314E-1,2.6354972E-1,1E0,-5.3155255E2,1.6089072E2,-8.0878284E2,-4.3292705E3,-5.1613684E2,2.3348833E3,-1.3586665E3,7.4664453E2],"split_indices":[281,15,26,2,2,13,145,0,0,0,0,0,0,0,0],"split_type":[0,0,0,0,0,0,0,0,0,0,0,0,0,0,0],"sum_hessian":[8.89E2,8.26E2,6.3E1,8.24E2,2E0,2E1,4.3E1,8.8E1,7.36E2,1E0,1E0,1.6E1,4E0,3.8E1,5E0],"tree_param":{"num_deleted":"0","num_feature":"287","num_nodes":"15","size_leaf_vector":"1"}},{"base_weights":[-1.156488E2,7.368587E0,-3.7392375E3,2.1149342E2,-2.0451295E4,-2.335511E3,3.6889378E1,-2.647485E3,4.2076824E1],"categories":[],"categories_nodes":[],"categories_segments":[],"categories_sizes":[],"default_left":[0,0,0,0,0,0,0,0,0],"id":75,"left_children":[1,3,-1,5,7,-1,-1,-1,-1],"loss_changes":[4.182421E9,3.8045955E9,0E0,3.354487E9,1.1426557E9,0E0,0E0,0E0,0E0],"parents":[2147483647,0,0,1,1,3,3,4,4],"right_children":[2,4,-1,6,8,-1,-1,-1,-1],"split_conditions":[3.2029529E0,1E0,-3.7392375E3,-2.6254086E0,1E0,-2.335511E3,3.6889378E1,-2.647485E3,4.2076824E1],"split_indices":[8,36,0,5,110,0,0,0,0],"split_type":[0,0,0,0,0,0,0,0,0],"sum_hessian":[9.11E2,9.09E2,2E0,9.01E2,8E0,5E0,8.96E2,6E0,2E0],"tree_param":{"num_deleted":"0","num_feature":"287","num_nodes":"9","size_leaf_vector":"1"}},{"base_weights":[4.6683117E1,-2.8293698E2,1.402024E4,-5.080352E2,2.0757666E4,1.7943047E3,2.386016E4,-6.58214E1,3.1043892E3,-3.33E2,2.8115574E3,7.010854E2,-1.2714594E3,2.5844714E3,2.0073125E2],"categories":[],"categories_nodes":[],"categories_segments":[],"categories_sizes":[],"default_left":[0,0,0,0,0,0,0,0,0,0,0,0,0,0,0],"id":76,"left_children":[1,3,5,7,9,11,13,-1,-1,-1,-1,-1,-1,-1,-1],"loss_changes":[3.9973386E9,4.0268452E9,2.3632317E9,4.0007153E9,1.6887375E9,8.46004E8,4.2517146E8,0E0,0E0,0E0,0E0,0E0,0E0,0E0,0E0],"parents":[2147483647,0,0,1,1,2,2,3,3,4,4,5,5,6,6],"right_children":[2,4,6,8,10,12,14,-1,-1,-1,-1,-1,-1,-1,-1],"split_conditions":[1.951138E0,3.5161068E0,3.473256E-1,1.3749809E1,1E0,1E0,2.8214252E0,-6.58214E1,3.1043892E3,-3.33E2,2.8115574E3,7.010854E2,-1.2714594E3,2.5844714E3,2.0073125E2],"split_indices":[26,2,8,32,240,245,3,0,0,0,0,0,0,0,0],"split_type":[0,0,0,0,0,0,0,0,0,0,0,0,0,0,0],"sum_hessian":[8.66E2,8.47E2,1.9E1,8.39E2,8E0,9E0,1E1,8.36E2,3E0,2E0,6E0,7E0,2E0,9E0,1E0],"tree_param":{"num_deleted":"0","num_feature":"287","num_nodes":"15","size_leaf_vector":"1"}},{"base_weights":[-3.7275046E2,-7.208651E2,1.2856726E4,-2.4601423E3,2.1728406E3,2.1519818E4,-2.0477205E3,-1.5547484E3,-1.9348799E2,1.8063823E2,5.8437124E3,2.5539329E3,-1.5366907E3,-8.987744E2,5.301847E2],"categories":[],"categories_nodes":[],"categories_segments":[],"categories_sizes":[],"default_left":[0,0,0,0,0,0,0,0,0,0,0,0,0,0,0],"id":77,"left_children":[1,3,5,7,9,11,13,-1,-1,-1,-1,-1,-1,-1,-1],"loss_changes":[3.9514685E9,4.2078636E9,2.8846758E9,3.558296E9,6.3686513E9,2.4681917E9,5.0670714E8,0E0,0E0,0E0,0E0,0E0,0E0,0E0,0E0],"parents":[2147483647,0,0,1,1,2,2,3,3,4,4,5,5,6,6],"right_children":[2,4,6,8,10,12,14,-1,-1,-1,-1,-1,-1,-1,-1],"split_conditions":[1.2165976E0,3.8174272E-1,1E0,-1.5986657E0,1E0,2.8214252E0,1E0,-1.5547484E3,-1.9348799E2,1.8063823E2,5.8437124E3,2.5539329E3,-1.5366907E3,-8.987744E2,5.301847E2],"split_indices":[5,4,189,5,85,3,48,0,0,0,0,0,0,0,0],"split_type":[0,0,0,0,0,0,0,0,0,0,0,0,0,0,0],"sum_hessian":[8.55E2,8.34E2,2.1E1,5.21E2,3.13E2,1.3E1,8E0,1.9E1,5.02E2,3.12E2,1E0,1.2E1,1E0,4E0,4E0],"tree_param":{"num_deleted":"0","num_feature":"287","num_nodes":"15","size_leaf_vector":"1"}},{"base_weights":[2.672955E2,-2.5989744E3,1.7895374E3,-3.285727E3,9.269099E3,-3.211232E2,4.703925E3,-2.726201E2,-1.6020906E3,1.590205E3,-5.541651E2,-1.0793368E1,-3.576321E3,3.9510934E2,2.9413108E3],"categories":[],"categories_nodes":[],"categories_segments":[],"categories_sizes":[],"default_left":[0,0,0,0,0,0,0,0,0,0,0,0,0,0,0],"id":78,"left_children":[1,3,5,7,9,11,13,-1,-1,-1,-1,-1,-1,-1,-1],"loss_changes":[3.848591E9,2.5244874E9,3.5446492E9,2.0227671E9,1.758186E9,2.5273603E9,4.385433E9,0E0,0E0,0E0,0E0,0E0,0E0,0E0,0E0],"parents":[2147483647,0,0,1,1,2,2,3,3,4,4,5,5,6,6],"right_children":[2,4,6,8,10,12,14,-1,-1,-1,-1,-1,-1,-1,-1],"split_conditions":[-9.181866E-1,1.8647681E0,5.3949344E-1,1.4370958E0,1E0,1E0,2.3557012E0,-2.726201E2,-1.6020906E3,1.590205E3,-5.541651E2,-1.0793368E1,-3.576321E3,3.9510934E2,2.9413108E3],"split_indices":[8,31,6,12,183,91,12,0,0,0,0,0,0,0,0],"split_type":[0,0,0,0,0,0,0,0,0,0,0,0,0,0,0],"sum_hessian":[8.8E2,3.05E2,5.75E2,2.89E2,1.6E1,3.34E2,2.41E2,2.78E2,1.1E1,1.1E1,5E0,3.33E2,1E0,2.35E2,6E0],"tree_param":{"num_deleted":"0","num_feature":"287","num_nodes":"15","size_leaf_vector":"1"}},{"base_weights":[-3.2935413E2,-8.165972E2,1.2171768E4,-1.0510027E3,1.7072451E4,1.5551627E4,-1.6220117E4,-1.169787E2,3.2321384E3,-3.037168E2,2.4993206E3,-1.3014844E1,2.033E3,-2.9073938E3,1.1170673E3],"categories":[],"categories_nodes":[],"categories_segments":[],"categories_sizes":[],"default_left":[0,0,0,0,0,0,0,0,0,0,0,0,0,0,0],"id":79,"left_children":[1,3,5,7,9,11,13,-1,-1,-1,-1,-1,-1,-1,-1],"loss_changes":[5.3579126E9,3.565467E9,3.4189486E9,3.3518116E9,1.8280253E9,2.250646E9,1.7330803E9,0E0,0E0,0E0,0E0,0E0,0E0,0E0,0E0],"parents":[2147483647,0,0,1,1,2,2,3,3,4,4,5,5,6,6],"right_children":[2,4,6,8,10,12,14,-1,-1,-1,-1,-1,-1,-1,-1],"split_conditions":[2.0665057E0,2.4186754E0,-1.15024514E-1,3.2029529E0,1E0,1.3900228E0,5.057327E-1,-1.169787E2,3.2321384E3,-3.037168E2,2.4993206E3,-1.3014844E1,2.033E3,-2.9073938E3,1.1170673E3],"split_indices":[15,2,9,8,183,20,1,0,0,0,0,0,0,0,0],"split_type":[0,0,0,0,0,0,0,0,0,0,0,0,0,0,0],"sum_hessian":[8.77E2,8.45E2,3.2E1,8.35E2,1E1,2.9E1,3E0,8.33E2,2E0,3E0,7E0,7E0,2.2E1,2E0,1E0],"tree_param":{"num_deleted":"0","num_feature":"287","num_nodes":"15","size_leaf_vector":"1"}},{"base_weights":[1.7619751E2,-8.09172E2,3.8678127E3,-9.501074E2,3.281527E3,2.7818735E3,2.1286107E4,-7.9889305E1,-3.6319998E3,5.150975E2,-2.5559749E2,2.5949915E3,1.993125E1],"categories":[],"categories_nodes":[],"categories_segments":[],"categories_sizes":[],"default_left":[0,0,0,0,0,0,0,0,0,0,0,0,0],"id":80,"left_children":[1,3,5,7,-1,9,11,-1,-1,-1,-1,-1,-1],"loss_changes":[3.2806116E9,3.4052575E9,3.5346744E9,3.768373E9,0E0,2.289428E9,1.0766203E9,0E0,0E0,0E0,0E0,0E0,0E0],"parents":[2147483647,0,0,1,1,2,2,3,3,5,5,6,6],"right_children":[2,4,6,8,-1,10,12,-1,-1,-1,-1,-1,-1],"split_conditions":[1.2806852E0,3.3205261E0,1E0,3.2029529E0,3.281527E3,1.713128E-2,1E0,-7.9889305E1,-3.6319998E3,5.150975E2,-2.5559749E2,2.5949915E3,1.993125E1],"split_indices":[4,13,135,8,0,24,203,0,0,0,0,0,0],"split_type":[0,0,0,0,0,0,0,0,0,0,0,0,0],"sum_hessian":[9E2,7.11E2,1.89E2,7.09E2,2E0,1.79E2,1E1,7.07E2,2E0,1.24E2,5.5E1,8E0,2E0],"tree_param":{"num_deleted":"0","num_feature":"287","num_nodes":"13","size_leaf_vector":"1"}},{"base_weights":[-1.4943925E2,7.395316E2,-4.6503745E3,-6.651996E2,5.9349307E3,-6.8189204E3,1.0426376E4,-4.191502E1,-2.784364E3,3.8325974E2,1.3633213E3,-2.2857122E3,-4.3797525E2,2.553865E2,1.9947782E3],"categories":[],"categories_nodes":[],"categories_segments":[],"categories_sizes":[],"default_left":[0,0,0,0,0,0,0,0,0,0,0,0,0,0,0],"id":81,"left_children":[1,3,5,7,9,11,13,-1,-1,-1,-1,-1,-1,-1,-1],"loss_changes":[3.396457E9,5.1783286E9,4.6483436E9,3.726496E9,2.3915863E9,4.7116355E9,1.2982886E9,0E0,0E0,0E0,0E0,0E0,0E0,0E0,0E0],"parents":[2147483647,0,0,1,1,2,2,3,3,4,4,5,5,6,6],"right_children":[2,4,6,8,10,12,14,-1,-1,-1,-1,-1,-1,-1,-1],"split_conditions":[1.3747946E0,1E0,1E0,1.8453236E0,5.989749E-1,-7.793259E-1,1.7334672E0,-4.191502E1,-2.784364E3,3.8325974E2,1.3633213E3,-2.2857122E3,-4.3797525E2,2.553865E2,1.9947782E3],"split_indices":[3,195,56,8,26,10,8,0,0,0,0,0,0,0,0],"split_type":[0,0,0,0,0,0,0,0,0,0,0,0,0,0,0],"sum_hessian":[8.47E2,7.08E2,1.39E2,5.58E2,1.5E2,1.22E2,1.7E1,5.54E2,4E0,1.19E2,3.1E1,1.5E1,1.07E2,1E1,7E0],"tree_param":{"num_deleted":"0","num_feature":"287","num_nodes":"15","size_leaf_vector":"1"}},{"base_weights":[-1.5529959E2,-3.7824414E2,1.872134E4,-7.661141E2,1.0575405E4,1.9311133E3,2.564128E3,-1.1952069E2,8.5879346E2,4.3837393E2,2.6280564E3,2.8655676E2,-4.36125E1],"categories":[],"categories_nodes":[],"categories_segments":[],"categories_sizes":[],"default_left":[0,0,0,0,0,0,0,0,0,0,0,0,0],"id":82,"left_children":[1,3,5,7,9,11,-1,-1,-1,-1,-1,-1,-1],"loss_changes":[3.605301E9,3.6024105E9,1.1123574E9,3.293516E9,2.7047844E9,1.009805E7,0E0,0E0,0E0,0E0,0E0,0E0,0E0],"parents":[2147483647,0,0,1,1,2,2,3,3,4,4,5,5],"right_children":[2,4,6,8,10,12,-1,-1,-1,-1,-1,-1,-1],"split_conditions":[4.7961764E0,2.0784862E0,-3.7566032E-2,1E0,1E0,-7.83564E-2,2.564128E3,-1.1952069E2,8.5879346E2,4.3837393E2,2.6280564E3,2.8655676E2,-4.36125E1],"split_indices":[9,13,2,37,223,2,0,0,0,0,0,0,0],"split_type":[0,0,0,0,0,0,0,0,0,0,0,0,0],"sum_hessian":[8.54E2,8.45E2,9E0,8.17E2,2.8E1,3E0,6E0,7.82E2,3.5E1,2.1E1,7E0,2E0,1E0],"tree_param":{"num_deleted":"0","num_feature":"287","num_nodes":"13","size_leaf_vector":"1"}},{"base_weights":[1.1550748E2,-4.0043448E2,7.8341475E3,-1.8892559E3,1.8518268E3,9.965749E3,-3.314606E4,-4.9005466E2,-8.792104E0,1.3565549E2,3.4169407E3,2.9505273E2,2.2733235E3,-9.8471014E2,-3.9871985E3],"categories":[],"categories_nodes":[],"categories_segments":[],"categories_sizes":[],"default_left":[0,0,0,0,0,0,0,0,0,0,0,0,0,0,0],"id":83,"left_children":[1,3,5,7,9,11,13,-1,-1,-1,-1,-1,-1,-1,-1],"loss_changes":[3.5593935E9,